68 64
52 -0.14311872 -0.18254876 -0.3833025 0.17905657 0.2476924 0.13543637 0.03293107 0.16284803 -0.07704192 0.04946188 -0.16527969 0.15597357 0.056251537 -0.09486845 -0.59592706 0.16817634 -0.00592953 0.004067607 -0.050057054 -0.060802523 -0.27547598 0.3659296 -0.01106608 0.18338045 -0.5052798 -0.0150243975 0.4545435 0.13738479 -0.47270384 -0.14336376 0.009275083 -0.33685285 0.068086706 -0.12696724 -0.2502128 -0.07374238 0.06530565 -0.20155174 0.23502834 -0.09049178 0.17493989 -0.25725955 0.030052308 0.24945924 -0.10990965 0.19526589 -0.30976176 -0.10189299 0.37527287 0.046189774 0.004920926 0.21393096 -0.03321386 0.085189 0.27907106 0.31128925 -0.3968838 -0.020443944 0.35292956 -0.052500162 0.1298904 0.3790365 -0.33411705 -0.17408484
46 -0.4887433 0.08670381 -0.09698657 0.42358333 0.12366607 0.17341909 0.10629685 0.18923979 -0.34154782 -0.33705303 -0.087772325 -0.07306982 0.18974778 -0.046812393 -0.45264274 0.4725993 -0.09517005 -0.2560299 -0.071869686 0.1104843 -0.4184 0.43574104 0.048598453 0.0075514875 -0.2252015 0.0294667 0.14836393 0.031711776 -0.43429932 -0.46090704 -0.2610947 -0.04921967 -0.08773413 -0.33567026 -0.13686027 -0.25239244 0.09700017 -0.09679169 0.13351637 -0.14391533 0.20049053 -0.076325014 -0.14702578 0.3413045 -0.15423666 0.15830632 -0.42187434 0.032143693 0.44382414 -0.14497072 -0.030834053 0.33727524 -0.23902613 -0.110616446 0.03910458 0.2587387 -0.55818427 -0.22127396 0.44553715 -0.3458879 -0.15087256 0.21016607 -0.32209143 -0.08254797
37 -0.22975191 -0.0681654 0.082933344 -0.60147196 0.36169076 0.40978062 -0.25070262 0.031096265 0.2912167 -0.61257386 0.060081072 0.040002324 0.23338675 -0.024730807 0.23768163 0.01273682 -0.18679696 -0.09398097 -0.1688998 -0.120457485 -0.12335682 0.65216684 -0.14263271 0.1286844 -0.2170588 0.11476846 -0.23922728 -0.086884424 -0.036319584 -0.21803261 0.4839743 -0.058147404 0.44201955 0.20535319 -0.3607966 0.2997575 -0.20884277 -0.25413465 0.22786221 0.29189706 -0.11033006 -0.12359477 -0.22924027 -0.42433345 -0.10955786 0.17593543 -0.30443308 -0.188439 0.7822044 -0.27518225 -0.3190553 0.06375036 0.1569905 -0.38783532 -0.6822237 0.41742328 0.5323489 -0.64384997 -0.14558952 -0.43669918 -0.10593947 0.12048893 0.16609757 0.32696843
24 -0.5039667 -0.090169206 -0.19667195 0.28300023 -0.010797853 0.25976655 0.056646906 0.15868603 -0.44709173 -0.6053465 -0.07162115 0.14824292 0.20828035 -0.10091372 -0.27837935 0.24962024 -0.20203301 -0.27778944 -0.37662616 0.092208736 -0.45691714 0.2046506 -0.053708054 0.17128333 -0.2591049 0.2639075 0.10044085 0.43315408 -0.38713673 -0.6027958 -0.035451233 -0.054127388 0.21270032 -0.34515014 -0.32138795 -0.15280925 0.28327757 -0.041794583 0.14438467 -0.019456342 0.16641225 0.28786296 -0.24884245 0.21358584 -0.22394046 0.014357369 -0.40011615 -0.2225436 0.35428753 -0.23932964 0.022258984 0.05117699 -0.4573477 -0.022345338 -0.007463273 0.5934514 -0.53085953 -0.22788782 0.36527017 -0.46002057 0.025446134 0.34897375 -0.5447315 -0.025763676
20 -0.45118746 -0.085355036 -0.4905425 0.36963162 0.10343355 0.14270434 0.1781367 0.21329078 -0.2755411 -0.47452882 0.075068936 0.067328975 0.20291242 0.025840353 -0.45055157 0.21795529 0.025563171 -0.3379945 -0.1407893 -0.025162049 -0.34735778 0.26811278 -0.04007589 -0.06519917 -0.36286315 0.20927903 0.030899964 0.30640942 -0.4782674 -0.42793727 0.15070666 -0.0019375222 -0.03582312 -0.3298805 -0.17985968 -0.21479698 0.18583414 -0.04200615 -0.010559782 0.05453852 0.24250732 0.1702783 -0.2833952 0.21941625 -0.24821423 0.048213735 -0.55323476 -0.15174049 0.3913749 -0.2739372 -0.04309977 0.25826666 -0.3426938 0.018990941 0.017205346 0.5316748 -0.3436277 -0.12469574 0.53704405 -0.43895382 -0.28069654 0.2737921 -0.51753694 -0.25580278
30 -0.31215492 -0.12547539 -0.25305656 -0.47384048 0.24430124 0.4045732 0.22553752 0.0399605 0.21559937 -0.6698587 0.026171433 0.15466766 0.18465719 -0.10522455 0.1948753 0.15248607 -0.057370756 -0.0769102 -0.22233455 0.07322634 0.14856866 0.94367075 0.037908092 0.15028481 -0.29520643 -0.057562113 -0.38288328 -0.03460185 0.08984152 -0.23729944 0.43604636 -0.10632563 0.34073547 0.13420057 -0.33349255 0.019479394 -0.15490292 -0.3293862 0.008446266 0.4028588 -0.08486424 0.035892345 -0.13348402 -0.49649298 -0.04217891 0.25839394 -0.17085758 0.005435132 0.72152936 -0.410385 -0.35266712 0.051420007 0.40325746 -0.5188968 -0.7249836 0.29261166 0.47792232 -0.6318879 0.06690457 -0.5509298 0.029125674 0.33629933 -0.05206877 0.4088825
0 0.27214545 0.36977306 -0.36287656 0.16325419 0.33856744 -0.13752297 -0.11487367 0.13213895 0.08872745 -0.17607382 -0.17927602 -0.12780006 0.30803323 0.03839366 0.053991325 0.16213 -0.03983936 0.23960027 0.42042732 -0.23864658 -0.331376 0.54002213 0.38291097 -0.0743735 -0.2732941 0.0012571311 0.33993992 -0.086100936 -0.27179003 -0.070472166 -0.029343804 -0.31331706 -0.0936812 0.033723842 -0.32397637 0.47936085 -0.18443243 -0.03943728 0.52549213 0.14062317 0.281747 -0.3629417 -0.37103146 0.24045545 -0.18942611 0.19144855 -0.22245729 -0.17550161 0.20600396 0.26955926 -0.1435678 0.27035722 -0.15199444 -0.372145 -0.2064575 0.5689859 -0.016969156 -0.1325025 -0.2700363 0.30148926 0.109061904 0.18179439 0.088074274 -0.054417897
40 0.008191085 0.27888796 -0.38267136 0.37459463 0.34092465 0.005678731 -0.02380784 -0.08416283 -0.044090543 0.034248 0.011998233 -0.1715774 0.05733317 -0.11864333 -0.12534131 0.2831897 -0.075627364 0.1013939 0.07792461 -0.01098977 -0.43622074 0.36757928 0.15814817 0.16144234 -0.2498619 -0.10644021 0.25740698 0.04610041 -0.38625905 0.040451042 -0.027967297 -0.40776977 0.10600377 -0.27972546 -0.31149122 0.29649535 -0.19417799 0.04486561 0.43500844 -0.0718272 0.08436722 -0.45862535 -0.03346799 0.4356928 -0.16541758 0.034625087 -0.3373545 -0.28532586 0.42123684 0.29945397 -0.14495923 0.22814329 -0.110509716 -0.012499078 0.21765864 0.31531262 0.12153876 -0.0008873622 -0.23108101 0.12924373 0.053696953 0.34598044 0.04306851 -0.12652527
53 0.03776391 0.34945843 -0.67076313 0.5565374 0.38409552 -0.2960439 0.17764962 0.20666361 -0.2793959 -0.078684546 -0.054289248 -0.014657757 0.28436542 -0.061044097 0.03953099 0.13809586 -0.034499284 0.023710098 0.27584225 -0.20223345 -0.1950557 0.39776152 0.15367533 -0.2507971 -0.333214 -0.2188346 0.30491573 -0.24378353 -0.3233886 -0.26781952 -0.12537093 -0.15947504 0.013832085 -0.16385077 -0.3651557 0.30216268 -0.2650904 0.09482894 0.5511795 0.27165854 0.30171162 -0.5056658 -0.2704893 0.43662283 0.08425797 0.23532625 -0.31194714 -0.25086886 0.1159753 0.26276544 0.06636363 0.051820584 -0.19154416 -0.0531597 -0.050665375 0.25607118 -0.057761308 -0.17920144 -0.29987705 0.023505773 0.19847257 0.07744439 -0.25630596 0.19110167
26 -0.36822653 -0.14229767 -0.4663401 0.3013099 0.22001462 0.153061 -0.12650792 0.22749731 -0.28669456 -0.3462536 -0.007275014 0.0619298 0.13600211 -0.047338955 -0.36964464 0.30966058 -0.214621 -0.04813142 -0.19691947 -0.21148098 -0.30909577 0.21101093 -0.07841003 0.039519407 -0.48414913 0.2685248 0.21363719 0.16808598 -0.5329647 -0.32508838 0.085181706 -0.10197803 0.0849362 -0.26146823 -0.26538005 -0.08194839 0.11429119 -0.19520353 0.05933129 0.03802911 0.055991463 -0.19452767 0.01530702 0.16895549 -0.32328588 0.1444945 -0.42779747 -0.025002172 0.19222371 -0.00355115 -0.03550067 0.28371605 0.03818245 -0.052660808 0.0013985776 0.40817344 -0.48582658 0.26070997 0.71879274 -0.26388243 -0.11815899 0.36612546 -0.47177362 -0.12645212
33 -0.1110207 0.08107605 -0.30216712 0.46123305 0.32314962 -0.11614416 0.079359725 0.0963773 -0.086159706 0.15688998 -0.008667959 -0.09625934 0.111190796 -0.081719965 -0.32703477 0.19153103 -0.29587767 -0.03960709 -0.064954735 -0.2259977 -0.24372049 0.5428166 0.19103257 0.11461311 -0.3979426 -0.19068463 0.13668604 0.06499278 -0.5225049 -0.04483956 -0.29117218 -0.30367795 -0.024103696 -0.17893316 -0.2358923 -0.096910775 0.010643059 -0.08392042 0.52739674 0.020194106 0.08253235 -0.3170639 -0.15504166 0.2703549 -0.29352465 0.13720931 -0.2081374 -0.06516078 0.3242363 0.4318174 0.042565975 0.33548436 -0.15139 0.104220256 0.3177204 0.2671527 -0.09139449 0.024878992 0.21250041 -0.17333879 0.22494206 0.31647125 -0.070694596 0.05867471
48 -0.49334675 -0.058793213 -0.16302575 0.30306247 0.27031836 -0.10589378 0.25364777 0.10429837 -0.21490389 -0.18064322 -0.100791536 -0.08329344 0.36584914 -0.16236709 -0.40960836 0.30908114 -0.2518662 -0.008343027 -0.04133182 -0.09519756 -0.13617986 0.25922164 0.19242999 0.110999115 -0.42000124 -0.23885554 0.35533425 0.10691342 -0.5659496 -0.08438709 -0.35869282 0.007678226 0.028202765 -0.08881985 -0.22846162 -0.12670274 -0.0042834496 -0.23047493 0.29094055 -0.14380278 0.24362907 -0.19357607 -0.10703468 0.28158867 -0.13571143 0.22131243 -0.42039987 -0.103692815 0.23847294 -0.039791316 -0.07298841 0.36326423 0.004908703 0.053079855 0.22877547 0.3331603 -0.4160321 -0.021754215 0.29932866 -0.17116486 -0.05933841 0.2891161 -0.3345465 0.058998443
63 -0.15802623 0.04534467 -0.21186614 0.57406706 0.3642639 -0.34246737 0.1781489 0.25306883 -0.18953569 -0.10102319 0.051973443 -0.16228661 0.23348533 -0.14784202 -0.4131223 0.23932809 -0.19914904 0.28925112 0.03947711 -0.1962924 -0.105158605 0.3669926 0.20379728 0.045267865 -0.47126314 -0.0906047 0.16545564 -0.012682125 -0.2670839 -0.014295347 -0.12763312 -0.070456386 0.0067315744 -0.26930568 -0.3478911 0.029506775 -0.035658408 0.026135268 0.568124 0.034756634 0.2686452 -0.35821855 -0.137848 0.45049015 -0.09871047 -0.028616065 -0.22181016 -0.15745932 0.21495704 0.38494697 -0.02931162 0.2875746 -0.027670683 0.059573732 0.18200785 0.30110687 -0.14514326 -0.27878153 -0.032177236 0.075687386 0.30752507 0.23211592 -0.24726634 0.29717508
19 -0.035065874 0.0811379 -0.43230808 -0.028988712 0.4256396 -0.17032894 -0.055919584 -0.100740865 0.32067832 -0.0337501 -0.106946 -0.35983467 0.3655035 0.06651134 -0.006877682 0.18585517 0.24569215 0.026027584 0.2057842 -0.15281753 -0.13769338 0.6365885 0.031536136 0.012859943 -0.36495772 -0.12584853 0.2002505 -0.17697057 -0.2193413 0.046658423 -0.09707697 -0.37619945 0.3180504 0.20615199 -0.3217169 0.4876598 -0.47757414 -0.14093448 0.37567544 0.17583896 0.091377445 -0.59231347 -0.449324 0.15050447 -0.34523806 -0.00089644454 -0.14098687 -0.21861269 0.18121985 0.10828646 -0.3297437 0.20971337 0.04449478 -0.31499133 -0.16767992 0.52153856 0.064883895 -0.025793973 -0.3780846 0.1315528 -0.00086467474 0.12755524 0.34933713 0.15346947
11 -0.12553845 0.3686206 -0.36848384 -0.0033943572 0.3720494 -0.11244669 -0.011323399 0.096614875 0.024459464 -0.24168481 -0.20288749 0.13532075 0.40741405 0.15046953 0.2230406 0.0745485 0.12723069 0.06507358 0.44319344 -0.2102641 -0.25104696 0.5569359 -0.106482126 -0.06417362 -0.35546634 -0.0009939248 0.26904494 -0.17823212 -0.09220665 -0.17786506 -0.14231451 -0.27614155 0.18540126 0.16272046 -0.127164 0.38006586 -0.19476521 -0.21938132 0.5919938 0.05289552 0.073381335 -0.6886555 -0.23097841 0.22621657 -0.14397039 0.09851796 -0.06165213 -0.35596403 0.246465 0.21486236 -0.26474723 0.2598976 -0.18814099 -0.31204602 -0.4281852 0.4344554 0.057228107 -0.19096945 -0.46371445 0.2612148 0.32841513 0.067344934 0.23879513 0.026801335
2 -0.4106674 -0.08207957 -0.10376369 -0.50999075 0.28779465 0.36117977 0.07931929 0.044042204 0.0727019 -0.5777955 -0.0568382 0.085957795 0.20727825 -0.026259493 0.078108884 0.07981254 -0.11777328 -0.29547876 -0.508467 -0.10435002 0.1708068 0.8085835 -0.1825079 0.27005637 -0.24907747 -0.039069228 -0.24248633 -0.14344326 -0.13937302 -0.20105445 0.4231103 -0.073210746 0.29928795 0.074065804 -0.23233575 0.023079641 -0.0341394 -0.3093298 -0.035273608 0.32023668 -0.017583879 0.0021210415 -0.15811898 -0.6294023 -0.11338809 0.4345707 -0.26801884 -0.07600725 0.6979355 -0.19639277 -0.24140579 0.18356 0.4743827 -0.2530443 -0.7795003 0.19926946 0.46472603 -1.060808 0.0044082697 -0.44367263 -0.11191128 0.24794622 -0.04504621 0.5307482
1 -0.37195194 0.25337628 -0.44910038 0.3325336 0.2776798 -0.06056043 0.02147092 0.124024116 -0.13472418 -0.16194293 -0.46250942 0.09614196 0.2571854 0.23584351 0.27838153 0.14747047 -0.059715804 -0.035560247 0.5486248 -0.007467416 -0.30092454 0.57539916 0.16094205 -0.29295024 -0.10681377 -0.056233674 0.2239039 -0.15771747 -0.25992644 0.120383225 0.047885753 -0.16772223 -0.1086186 0.13710818 -0.4769142 0.57843554 -0.20184992 -0.15241334 0.8036705 0.20023885 0.24486892 -0.67527133 -0.30914286 0.23371229 0.12999834 0.22084881 -0.09943898 -0.22698548 0.26743248 0.29143727 -0.1990286 0.008114843 -0.3734298 0.08203906 -0.43465102 0.5003819 -0.027041225 -0.3003112 -0.530714 0.34106717 0.26118636 0.21643248 -0.23459168 0.25071484
7 -0.5294901 -0.013328006 -0.487775 0.4328962 0.05572065 0.047296762 -0.044784803 0.14282389 -0.1584141 -0.35444924 -0.03203594 0.08107214 0.03981881 0.09605408 -0.3789776 -0.054942116 0.112639226 -0.10477875 -0.047445003 -0.008491366 -0.34654626 0.25889066 -0.23847787 -0.048041794 -0.23043461 0.22526303 0.2180965 0.09425118 -0.5141374 -0.5332687 0.25124347 0.094218746 0.04148055 -0.40837976 -0.41499418 -0.28986448 0.16678758 -0.28876498 0.040786363 -0.001678841 0.23768649 0.26571572 0.04613653 -0.06911842 -0.18712345 0.113129064 -0.4845534 -0.20141686 0.41671878 -0.25687972 -0.058090147 0.32298288 -0.28856975 -0.030704698 0.107539766 0.6283784 -0.5054961 -0.032626268 0.44105357 -0.39223808 -0.034049727 0.47070223 -0.57618177 -0.07094174
59 -0.097422756 -0.19255497 -0.49015656 0.36511463 0.2964157 0.13619436 0.13654701 0.04935034 -0.12734051 0.02274703 -0.25815266 -0.2627113 -0.018288694 -0.19281341 -0.2698276 0.23871794 0.07413084 0.19188659 -0.138083 -0.108536296 -0.41224778 0.40187392 -0.012383734 0.29635617 -0.48326352 -0.1833503 0.26864386 0.07808613 -0.36853206 -0.26414427 -0.013068891 -0.499423 0.0748475 -0.1763095 -0.24537247 0.18206106 0.102154896 -0.12709637 0.5080523 -0.06698256 0.20691201 -0.3665073 -0.026198737 0.0681459 -0.29268563 0.089698575 -0.24057868 -0.28305763 0.305792 0.32089168 0.17453432 0.21998158 -0.13734923 -0.21254516 0.24662702 0.21201223 -0.116355285 0.22536643 0.072640166 0.28402728 -0.033793766 0.36444518 -0.09706784 -0.27595362
6 -0.34903178 -0.12623833 -0.11752295 -0.61554354 0.20643036 0.40634295 0.07087697 0.11654308 0.23017083 -0.62168884 -0.0084591815 0.23171532 0.19003285 -0.029378373 0.059747834 0.024325764 -0.07194286 -0.19132604 -0.21825999 -0.22963813 0.092766255 0.658147 -0.11844994 0.14891516 -0.16824406 -0.01405673 -0.15384601 -0.07147126 -0.028997643 -0.25010896 0.47620365 -0.036194477 0.34579238 0.14200063 -0.41294515 0.023990205 -0.09830789 -0.40341735 0.20019855 0.12869053 -0.10636787 -0.27879396 -0.34613436 -0.5288808 -0.23254222 0.13467334 -0.24264298 0.04417005 0.7142115 -0.41489792 -0.39213973 0.10852321 0.2909038 -0.45903057 -0.8422357 0.317446 0.5362294 -0.80773646 -0.06379593 -0.58375424 -0.19285326 -0.01909525 0.0034748472 0.49701104
12 -0.2789439 -0.12867944 -0.5185205 0.1886703 0.0931354 0.2339312 0.015248148 0.30080894 -0.09555511 -0.35389954 -0.016816827 0.08345735 0.09363613 0.14630003 -0.40751946 0.1727349 0.007907948 -0.1476233 0.048955936 -0.030261585 -0.3621813 0.2441499 -0.24249771 0.053642966 -0.37466934 0.15248269 0.36003995 0.16758496 -0.68508476 -0.4214369 0.30540994 -0.04204745 0.20304212 -0.44929454 -0.41356972 -0.26445076 -0.0012960463 -0.39030996 -0.037003957 0.024808086 -0.06855977 -0.023058962 0.18587482 -0.08119168 -0.20738716 0.090829454 -0.42894015 -0.10114905 0.36601615 -0.1403616 0.07707397 0.37113506 -0.11169758 0.015309023 0.07436982 0.486193 -0.652844 -0.007620909 0.64579797 -0.115887135 -0.023317428 0.2460039 -0.42974687 -0.07613069
65 -0.32965863 -0.1745246 -0.20000708 -0.21770534 0.4299665 0.4924077 0.38285905 -0.0859938 0.14187708 -0.5731442 -0.08288679 0.26750356 0.043202676 -0.0860504 0.23331052 0.29970562 -0.29381135 -0.050552014 -0.52338743 -0.039162237 0.2806544 0.8387293 -0.29665983 0.20865105 -0.2639368 -0.18531652 -0.26712924 -0.07716526 0.019517839 -0.50123876 0.5483667 -0.17503266 0.23856202 0.17532854 -0.39134514 -0.006073711 -0.088163204 -0.2724028 -0.00070164003 0.3081067 0.075960964 0.114342295 -0.106981225 -0.5708491 0.03096265 0.28140888 -0.18819688 -0.13887702 0.6376831 0.07256648 -0.074244194 0.044925608 0.6475892 -0.35714743 -0.6179291 0.2487406 0.59810483 -0.9583298 0.0804097 -0.5740557 0.015642282 0.121442795 -0.4169643 0.46449587
32 0.009839785 0.2541295 -0.3090446 -0.12402884 0.15746206 0.037340537 0.09419853 0.029722596 0.24603912 0.06688507 -0.14903703 -0.28515026 0.32700384 0.08894499 0.0044298293 -0.01848986 0.07022573 0.03401395 0.20886149 -0.28908628 -0.036933456 0.6589353 0.0487614 0.06778212 -0.38351622 -0.056687824 0.1076419 0.087465994 -0.30532196 0.024099473 -0.025571417 -0.39987022 0.49506193 0.3590045 -0.4381865 0.2776321 -0.48774275 -0.09906801 0.20305999 0.20915554 -0.032139555 -0.5721525 -0.26185828 0.1669406 -0.29017383 0.063830644 -0.16318637 -0.28170204 0.38540816 0.20560983 -0.16929299 0.21476004 0.23288733 -0.44011104 -0.39155275 0.49122113 0.21269047 -0.26953834 -0.35189158 0.1307509 0.030377036 -0.08265036 0.42051873 0.16961189
47 -0.319938 -0.051779397 -0.2737198 0.47281346 0.19794226 -0.09158001 0.26256692 0.08486696 -0.27514642 0.016171552 -0.014218353 -0.025448779 0.25587234 -0.0669243 -0.3443834 0.39199698 -0.33054018 0.2241962 0.02981865 -0.23115729 -0.2033286 0.28408578 0.23688643 0.04786454 -0.47565502 -0.24880953 0.09281262 0.063538946 -0.6088161 -0.024498135 -0.2575103 -0.0837548 -0.03399052 -0.4844999 -0.14249177 -0.17280419 -0.001074952 -0.2736168 0.40735838 -0.13380174 -0.005090007 -0.39890903 0.072795145 0.41668895 -0.21180154 0.31000543 -0.2428526 -0.12669392 0.18010664 0.32447124 -0.13412195 0.31599724 0.07832794 0.044442087 0.0715228 0.29527995 -0.1495336 -0.11591202 0.18831073 -0.16152662 0.2031914 0.28525892 -0.27564782 0.12505399
60 -0.16767472 0.4875398 -0.54563147 -0.19649744 0.3533357 0.015944911 0.12630735 0.0822963 0.26848233 -0.08696183 -0.1448137 -0.07275182 0.33415067 0.069889046 0.10252277 0.02034086 0.174943 0.018198721 0.16265997 -0.36927283 -0.28875384 0.64226866 0.057784107 -0.13236846 -0.28520504 -0.06214055 0.0730632 -0.069327325 -0.19442359 -0.108307496 -0.048891317 -0.23145519 0.25899804 0.35656935 -0.2205673 0.5159953 -0.27452686 -0.270692 0.46471444 0.03345066 0.067090586 -0.58175856 -0.22021672 -0.17611492 -0.37077042 0.20485742 -0.13841008 -0.21183069 0.16959648 0.20514806 -0.09620989 0.1347201 0.113976195 -0.21623084 -0.3814654 0.54043573 0.18278015 -0.27247134 -0.5309313 0.1855483 0.11183992 0.11847229 0.45864016 0.20915325
66 -0.3848342 -0.1540949 -0.26337293 -0.50173324 0.22871688 0.42789575 0.23722322 0.09556713 0.108769566 -0.62903976 0.04684399 0.2379072 0.21542424 -0.083851345 0.17487225 0.26798868 -0.0719753 -0.24165805 -0.3195463 0.0030555718 0.08957544 0.8291723 -0.094082326 0.1884449 -0.28661507 -0.19348034 -0.38808894 -0.042877577 0.06451482 -0.4397265 0.5551664 -0.12703654 0.2487221 0.113849826 -0.335789 -0.050085254 -0.0782253 -0.44882843 -0.017245485 0.19176504 0.005700208 0.07428865 -0.18902375 -0.5036482 0.023667471 0.38286793 -0.2908169 -0.053078387 0.5764729 -0.023188505 -0.20460586 0.08905317 0.533032 -0.4298747 -0.49396542 0.09013553 0.5945642 -0.9888554 0.029155297 -0.60754526 0.023441825 0.30752057 -0.10429905 0.49158752
38 0.028570306 0.3846231 -0.47695267 -0.216759 0.3908391 0.15660103 -0.011853065 -0.028564941 0.09267758 0.020499524 -0.25286245 -0.18914403 0.24830687 0.06550786 0.07190427 0.070034094 0.12608877 0.02725238 0.016635435 -0.1896646 -0.13782379 0.63601404 0.083159536 0.18585086 -0.20297444 0.04069284 -0.004666219 0.022281535 -0.10655513 -0.045331225 0.004773176 -0.44758326 0.5493029 0.27610147 -0.37473416 0.4986547 -0.10015392 -0.21926641 0.45643547 0.33391142 0.09568979 -0.56340206 -0.10205435 -0.27404135 -0.3298352 0.18281025 -0.035064116 -0.2140665 0.33449563 0.19268389 -0.2869893 0.06823867 0.06967385 -0.30682316 -0.4324974 0.33720726 0.20173733 -0.47897345 -0.55194175 -0.119684406 0.32189855 0.0025267634 0.5517262 0.027934391
36 0.19728817 0.1297719 -0.21862437 0.2164555 0.26120865 -0.044709165 -0.066513166 0.15436736 0.11021737 0.02230385 -0.17875674 -0.32034457 0.23906818 -0.2554843 -0.047753762 -0.048554502 0.064390704 0.046032052 0.13646491 -0.008800397 -0.25072715 0.5610732 0.108427204 0.20208023 -0.3044445 -0.0031439671 0.3905677 -0.07584362 -0.19336258 -0.07400459 -0.16507047 -0.36103708 0.26181602 -0.12505145 -0.26282853 0.4235277 -0.338189 0.0029833408 0.4232465 0.089362025 0.12475087 -0.5283816 -0.24159567 0.056866944 -0.22986333 0.023961484 -0.3036836 -0.4186225 0.39847115 0.23356384 0.02963028 0.31190684 -0.012919678 -0.42516536 -0.10508855 0.4811841 0.10207819 0.31148645 -0.13689892 0.18393154 -0.053525344 0.1651554 0.2664186 0.044830058
10 -0.8277822 0.13456824 -0.24444798 0.41320354 -0.11556068 0.31103903 0.050177023 0.022926545 -0.47266224 -0.43120655 0.0111114895 0.31856158 0.083699435 -0.11747627 -0.5962859 0.15879193 -0.14688389 -0.25733012 -0.37775776 -0.14360903 -0.2783874 -0.060685582 -0.20348361 0.064566456 -0.3057874 0.27518418 -0.12700269 0.3056827 -0.49602133 -0.69267505 -0.2667053 0.0101933945 0.46734387 -0.06381933 -0.45127064 -0.20608647 0.2856029 -0.3352183 0.025396246 0.19363715 0.10843263 0.33001256 -0.22603837 0.24735007 -0.22138347 0.032304376 -0.4263977 -0.16387132 0.7917014 -0.24275208 0.08631774 -0.10125515 -0.5442817 -0.08128841 -0.1683328 0.46347147 -0.3885331 -0.34502298 0.30734256 -0.5848678 0.10674736 0.25094104 -0.52368206 -0.0022328887
9 -0.22374885 0.19546862 -0.52320594 0.34386754 0.41539 -0.22216082 -0.00973903 0.02815281 -0.23799358 -0.33316663 -0.30009317 0.11082593 0.39080486 0.12260408 0.06852205 0.30367896 -0.16732658 -0.071258575 0.42616233 -0.1903474 -0.42850736 0.41782308 0.23043174 -0.3439611 -0.12819698 0.0026718804 0.3156884 -0.39368156 -0.23763807 -0.26323435 -0.0044204304 -0.14033443 -0.008927102 0.006243762 -0.47301504 0.38466954 -0.21952085 0.19745916 0.46775937 0.19354455 0.37715968 -0.51172173 -0.2505329 0.23198317 0.14209223 0.19406497 -0.09561456 -0.2469969 0.20662431 0.63984793 -0.09310015 0.24924341 -0.17826542 -0.006793713 -0.15505598 0.32126513 0.06961736 -0.24381599 -0.4852983 0.31375968 0.4000658 0.2638381 -0.34836364 0.29418468
3 -0.028627768 0.44982153 -0.48847243 0.2464725 0.38979447 -0.037927188 -0.0068105413 0.05532413 -0.27597612 -0.22254126 -0.2770003 0.13823451 0.44957605 0.18674417 0.17461857 0.13047744 -0.103768304 0.18173677 0.36824322 0.06537403 -0.27989 0.36298501 0.0894341 -0.24356207 -0.33652863 -0.0928043 0.24556956 -0.38839144 -0.18616813 -0.24751206 0.06851421 -0.33741462 -0.03979039 0.06859107 -0.25902638 0.5381481 -0.17100914 -0.060377892 0.46477792 0.3443439 0.32719582 -0.6005616 -0.2181742 0.46514437 0.1359076 0.06626876 -0.059954926 -0.2963159 0.13382715 0.39468879 -0.26942134 0.17796196 -0.24217366 -0.11954726 -0.009409908 0.7350751 -0.028510744 -0.208355 -0.43963745 0.103962205 0.29697466 0.16658203 -0.21230602 0.12620346
67 -0.12830481 -0.21737404 -0.52996916 -0.33651182 -0.6346141 -2.3370323 -1.93043 -1.3107541 -2.1514661 0.49780685 -4.013438 -3.0060256 -0.011228118 3.944375 -0.7048831 2.5182607 -1.9665786 1.5961006 -0.61112726 0.21264468 -0.5017528 2.2901974 -0.80183524 0.74523574 0.08829472 -0.37512767 3.5235424 0.2893385 -3.0835724 1.1882336 -0.8368814 -1.9880596 0.3734407 1.7541785 -3.5867145 0.50501657 0.42941627 -0.57872224 -0.04802023 2.5661025 0.016903827 -3.5724652 0.57288724 3.4077115 -4.192831 -0.29867575 -2.3710384 -1.8555373 2.4428136 -0.5399314 -2.4644814 4.332007 -1.467714 -0.2576854 -0.17873046 2.9104736 0.11593734 -1.6079333 -0.19221444 0.71108323 -1.8021065 -1.186275 -0.66086847 -2.4389467
41 -0.48212084 0.13687867 0.0408462 0.2772858 0.3391735 0.09199553 0.15296742 0.17781684 -0.28640255 -0.56956726 0.07802905 -0.013759862 0.054043368 -0.2575611 -0.29983637 0.44811332 0.10302054 -0.51172894 -0.166506 0.11720772 -0.5263297 0.3211381 -0.007902008 0.055231705 -0.35228118 0.1558413 0.2001618 0.21817589 -0.2155237 -0.5092514 -0.2849946 0.06481226 -0.02713513 -0.42664635 -0.1993414 -0.23477945 0.26847392 -0.12880452 0.21868956 0.05713758 0.21040285 0.08783416 -0.22961342 0.37074393 -0.17057063 0.11017932 -0.499846 -0.001976276 0.45053083 -0.3446246 0.116234064 0.21571593 -0.24918409 -0.1074264 -0.045297623 0.53664577 -0.4732852 -0.17725135 0.390185 -0.42347908 -0.18471152 0.18876459 -0.5186706 -0.1891692
49 -0.4162951 0.1909424 -0.21843566 0.2460247 0.24039498 0.25264603 0.11760388 0.0642973 -0.3614962 -0.50632787 -0.046845 -0.12617014 0.1494854 -0.28247157 -0.3279489 0.37432468 -0.19942138 -0.2786365 -0.19213411 0.11292749 -0.20850807 0.16750261 -0.085399486 -0.011894468 -0.31298408 0.25941265 -0.036260474 0.2594331 -0.20584002 -0.709181 -0.15802924 -0.02649798 0.14476714 -0.3484151 -0.1449169 -0.241245 0.2751131 -0.08638999 0.14746837 -0.03078273 0.17781788 0.20535246 -0.20343731 0.5080715 -0.21418118 0.2575154 -0.6114585 -0.039490663 0.53081125 -0.2987151 -0.12953642 0.09423891 -0.41923788 0.037641224 -0.06974692 0.5834299 -0.4641529 -0.19629267 0.39967075 -0.44021013 -0.06286499 0.3054377 -0.5478633 -0.17463934
50 -0.059127253 -0.16213208 -0.45801726 0.21369871 0.3523187 0.22660157 0.0004656309 0.20424789 0.09405383 -0.0022559687 -0.22751339 0.07507956 0.11680159 -0.01808173 -0.27840284 0.22878467 0.12374484 -0.031944804 -0.4845771 -0.04516874 -0.34183344 0.398382 -0.02374096 0.3643521 -0.5631388 -0.27161804 0.2766654 0.037654996 -0.52576166 -0.17169915 0.11420252 -0.52339095 0.01482356 -0.27803794 -0.19487841 0.07604882 0.0035729664 -0.32679704 0.11055162 -0.077457204 -0.0040455637 -0.13190798 -0.13918209 0.24775068 -0.36033982 0.13285184 -0.060518023 -0.24083291 0.63418394 0.27688268 0.08841547 0.40093282 -0.25561827 -0.2146073 0.3089149 0.13249294 -0.3222543 0.3435096 0.18256973 0.37433037 -0.17266348 0.45950267 -0.23170008 -0.07690774
64 0.031824477 0.08969024 -0.076676734 -0.30957508 0.21914934 0.35836208 -0.17166759 -0.03411625 0.30188125 -0.57035744 0.008989678 0.055196177 0.10281774 -0.087050624 0.36905813 0.008501442 0.14529373 0.15782489 -0.04407277 -0.24465784 -0.08629015 0.65795875 -0.05166142 0.3013262 -0.09545694 0.045157578 -0.064911164 -0.24416801 -0.036258027 -0.034978043 0.2404357 -0.035988662 0.48757678 0.08447268 -0.50904125 0.37155244 -0.01625318 -0.088381454 0.32965854 0.4636527 0.06388024 -0.087186635 -0.28051692 -0.2769813 -0.26689887 0.096784495 -0.28779268 -0.1210176 0.73636824 -0.050381415 -0.29562336 -0.08922919 0.012510024 -0.45799553 -0.62502354 0.45028773 0.54659945 -0.69392407 -0.24064144 -0.3017961 0.0029872393 0.026949741 0.3261465 0.37906075
23 -0.23937678 -0.36349842 -0.51145554 0.031020895 0.046544027 0.13023178 0.13948293 0.14612827 -0.017272921 -0.20962656 -0.25154078 0.13801491 0.07720647 0.05774586 -0.47297305 0.2913727 0.084326684 -0.06551329 -0.065800175 -0.10164928 -0.28420392 0.2572603 -0.25818503 0.07123175 -0.35330498 -0.102108076 0.35995567 -0.019831732 -0.5413251 -0.29575402 0.08084989 -0.20100784 0.02376217 -0.27686393 -0.18322548 -0.12264407 0.0363343 -0.5873936 -0.096142665 0.14006081 0.06627002 -0.23612276 0.03752158 0.005502333 -0.34890202 0.101973586 -0.4096223 -0.19852425 0.4380974 0.13445023 -0.05641762 0.51645994 -0.24519035 -0.07284914 0.33762172 0.39253616 -0.6243862 -0.012590056 0.51216286 -0.15002115 -0.03114329 0.20771745 -0.40690872 -0.22144648
4 -0.4631477 0.11543909 -0.08305714 0.6549437 0.40376812 -0.36922216 0.13641645 0.09756119 -0.144116 -0.20955843 -0.13494802 -0.16098408 0.47076517 0.04218597 -0.514321 0.3220992 -0.3291345 0.18029645 0.02562065 -0.14225519 -0.36034235 0.37912133 0.25768787 0.11090801 -0.4857411 -0.11283142 0.19788642 -0.036668513 -0.54503644 -0.048601247 -0.31805292 -0.12657678 -0.053300157 -0.2515338 -0.2788131 -0.17053537 0.09672591 -0.000989065 0.30369753 0.061673813 0.005400359 -0.36591962 -0.16650507 0.46617308 -0.10734456 0.41320187 -0.39052573 -0.059442643 0.121336624 0.057305768 -0.061116558 0.25404328 0.103431165 -0.030020012 0.062670134 0.19444934 -0.21314414 0.09277687 0.27327514 -0.31663182 0.14690816 0.152488 -0.21395414 0.14437187
35 -0.06386268 0.09486227 -0.21837123 -0.37735805 0.24615335 0.2807742 -0.045498025 0.043672837 0.14070478 -0.46364528 0.15095626 0.054290257 -0.0161638 -0.094544925 0.11210185 -0.013097189 0.14217293 -0.027789105 -0.022353439 -0.07558513 -0.17659695 0.6879599 0.096465856 0.013634774 -0.14932598 -0.07076299 -0.24236497 -0.0910318 0.08516929 -0.17414418 0.50956506 -0.2652154 0.45619613 0.08359693 -0.5201824 0.34514466 -0.25712597 -0.12875493 0.30073652 0.30606925 -0.037663907 -0.21829018 -0.29939753 -0.34276643 -0.096247114 -0.06911023 -0.04550834 0.016064987 0.743431 -0.22648145 -0.3096694 -0.043597415 -0.063806646 -0.3433105 -0.7490727 0.4968615 0.6520408 -0.4534645 -0.32013458 -0.39721045 -0.015394661 0.12458161 0.32926285 0.42531073
27 -0.046011087 -0.3541913 -0.6009861 0.13489306 0.2474177 0.385099 0.17777015 0.07349875 0.203839 -0.13411848 -0.25301275 0.26017186 0.101434104 0.051825054 -0.60786414 0.28236583 0.13782042 -0.121482626 -0.07833033 -0.02611047 -0.43588224 0.18492763 0.13022812 0.37087095 -0.3521018 -0.18734005 0.27646357 -0.24449784 -0.5959276 -0.33992565 0.12808608 -0.3598583 0.09531053 -0.45661217 -0.16632873 0.090113066 0.15618557 -0.3921198 0.086823165 -0.032157365 0.09173541 -0.03995475 0.054902747 0.028990142 -0.4927662 0.13695824 -0.0683502 -0.10562574 0.55904186 0.18531634 0.17236009 0.26650998 -0.1549787 -0.022065662 0.25828975 0.4681514 -0.49602377 0.06865217 0.5396617 0.15276518 -0.048917606 0.2801756 -0.34806845 -0.008612902
39 -0.18144052 -0.42891887 -0.52488375 0.3001383 0.3113963 0.2443467 0.054289196 0.094125934 0.15813166 -0.20566949 -0.23524469 -0.012566122 -0.041757233 -0.016291363 -0.3514267 0.2478161 -0.028958526 0.025390677 0.15897359 -0.26169825 -0.21154787 0.11665619 -0.2125057 0.078796946 -0.49907467 0.10456601 0.488442 0.10227418 -0.62122506 -0.4474558 0.304927 -0.12303527 -0.022970084 -0.4048771 -0.27481025 -0.09882137 0.003303095 -0.51880085 -0.111771666 -0.0251625 0.05966809 0.10417443 0.060095843 -0.12112365 -0.39675528 0.20942001 -0.298848 -0.24113408 0.5011443 0.24887605 -0.053208504 0.29919356 -0.12555788 -0.07762436 0.054027967 0.3489901 -0.6431152 0.18233883 0.34080607 -0.18109667 0.042790595 0.33222425 -0.43814754 -0.114067085
61 -0.09641818 0.29898643 -0.30575594 -0.17153744 0.4562131 0.1819534 -0.16997482 -0.16116905 0.2163692 0.21620809 -0.087112516 -0.26253298 0.14904 -0.08050672 0.14982882 -0.20476964 -0.018497704 0.10166874 -0.02299063 -0.39906773 -0.1440365 0.65205204 0.09305485 0.18264088 -0.40983018 -0.22147825 0.0009349817 -0.12357602 -0.3120265 0.010063249 0.10318774 -0.2925886 0.505506 0.1581399 -0.507208 0.3110672 -0.37855998 -0.024982363 0.34605652 0.2209804 0.09183465 -0.40630868 -0.14209022 -0.23374641 -0.4196662 0.011559349 -0.023611698 -0.24352 0.4301049 0.26484573 -0.16264866 -0.04366252 0.18273512 -0.3033856 -0.2796666 0.5763051 0.2812966 -0.22097541 -0.4154913 -0.0474265 0.0048552323 -0.05579715 0.43954387 0.3228834
21 -0.3870255 -0.10053217 -0.057801533 -0.582471 0.07125289 0.3327547 -0.15517133 0.11654887 0.13121016 -0.6726752 0.07083319 0.049850248 0.0071203695 0.11778818 0.2560543 0.09780243 -0.038109172 0.16232976 -0.2638662 -0.1992747 0.056905713 0.8580167 -0.27013052 0.2677995 -0.2265273 0.08019912 -0.094624154 -0.075444065 -0.15506987 -0.06371893 0.37816167 -0.17483367 0.30247456 0.25194544 -0.27388275 0.062077623 0.13816229 -0.28532666 0.098893434 0.347664 -0.07999179 -0.09377911 -0.25517976 -0.4079705 -0.31709304 0.18317147 -0.25966704 0.04642273 0.74392307 -0.36393115 -0.40873036 0.20520124 0.2240284 -0.4449855 -0.6910181 0.3376063 0.5564597 -1.0250069 -0.16250429 -0.4631421 -0.07407827 0.033216562 -0.013161257 0.45598954
31 0.05895315 0.15585929 -0.25403494 -0.21462838 0.21823533 0.35332915 -0.0036244784 -0.009361219 0.30723113 -0.21879251 -0.06429505 -0.112605944 0.14036821 -0.22770378 0.27053994 -0.17070007 -0.056880474 0.21045774 -0.1957315 -0.3058744 -0.12948757 0.561801 0.10903401 0.09023388 -0.29870105 -0.10616592 -0.06666717 -0.2891689 -0.12318305 -0.111770116 0.23035611 -0.19563738 0.32838014 0.20641413 -0.4205625 0.3069018 -0.2374187 -0.21159326 0.346041 0.46181664 -0.24248992 -0.44438392 -0.26302838 -0.2237457 -0.24368596 -0.00829265 -0.13814212 -0.19547392 0.67760974 0.0061554224 -0.15996774 -0.11590696 -0.008553265 -0.2944649 -0.39980602 0.31790438 0.50729865 -0.4378241 -0.68839866 -0.113850795 -0.019431733 0.15805903 0.31190532 0.17506517
18 -0.28242669 -0.008415747 -0.113595985 -0.51949495 0.20031722 0.3481566 -0.072312176 0.19583434 0.18814847 -0.56563586 -0.048029527 0.25153217 0.24616452 -0.3124845 0.16418473 -0.036656957 -0.0049247313 -0.096097104 -0.17775746 -0.02691367 -0.10415855 0.68569684 -0.15707846 0.07351991 -0.2502068 0.020838281 -0.23392043 -0.0643132 -0.014533897 -0.32747254 0.31976855 -0.060214844 0.58345747 0.12742501 -0.38110986 0.1169245 -0.2861735 -0.25748742 0.059433047 0.3948526 -0.039104886 -0.20251235 -0.37655234 -0.57952404 -0.030268718 0.13729006 -0.22282015 0.08374396 0.72811735 -0.2404433 -0.4902194 0.016997656 0.20820992 -0.6082233 -0.7933041 0.31528136 0.4792958 -0.6509288 -0.018044591 -0.39825112 -0.12769675 0.005143995 0.22388 0.40297624
13 0.045287684 0.17250374 -0.34607834 -0.17694755 0.16407989 -0.12805063 -0.11442856 0.060592044 0.112598546 0.10790985 -0.028171446 -0.5339112 0.19486049 -0.02927346 -0.03742815 0.15503639 0.17280003 0.109652594 0.23723987 -0.18822499 -0.32700124 0.51922786 0.24394083 0.034868795 -0.30376944 -0.16334455 0.0046101143 0.10505679 -0.2670049 -0.03433334 0.16335998 -0.50743824 0.41247615 0.23772424 -0.46803123 0.49291712 -0.402267 -0.16361916 0.2003356 0.1598884 0.04610944 -0.64203733 -0.22639348 0.032542944 -0.28028813 0.0070900596 -0.2797048 -0.12976821 0.30663246 0.17595167 -0.062756546 0.09368462 0.1764925 -0.58901274 -0.16492698 0.38444433 0.17263411 -0.1206017 -0.2506436 -0.008672046 -0.12816952 -0.11232452 0.23353434 0.08379035
28 -0.3818222 -0.11894046 -0.18069722 -0.4893031 0.24881694 0.36437201 0.2725451 0.031701114 -0.022239707 -0.6456314 -0.18213761 0.30517054 0.28387508 -0.18867451 0.09682968 0.12602459 -0.11448459 -0.20243981 -0.42448834 0.100034125 0.18325914 0.87842906 -0.016910521 0.22983827 -0.23053128 -0.25251135 -0.3357904 -0.16766118 0.14924815 -0.4387897 0.46948078 -0.0130165 0.26028657 0.01927844 -0.38025883 -0.028754983 -0.08750628 -0.51175404 -0.12720276 0.27140713 0.025533477 0.041925013 -0.2027187 -0.6890404 0.002535452 0.33239624 -0.25573468 -0.100298144 0.50397974 -0.0064053363 -0.21677308 0.11022836 0.4538462 -0.36111394 -0.5788268 0.20917197 0.5319272 -0.96774244 0.052799948 -0.6169488 0.054068897 0.4455366 -0.10659176 0.5135867
34 -0.54051554 -0.011623333 -0.3848669 0.3812761 -0.041285343 0.25747398 0.009015929 -0.13980123 -0.4369828 -0.7219665 0.0031561246 0.059945006 0.10877504 0.058129672 -0.41972905 0.17417568 -0.10826577 -0.20971599 -0.21070108 -0.1010251 -0.4531723 0.026055524 -0.094696626 -0.021307724 -0.30807328 0.34669986 0.07044785 0.20010176 -0.40861717 -0.55213964 0.06736863 0.056599174 0.3428246 -0.31847236 -0.62246776 -0.21267936 0.23454998 -0.17903726 0.076995626 0.054106712 0.049320605 0.30458745 -0.041166 0.12676178 -0.2860471 0.031664155 -0.30296394 -0.1575181 0.4008281 -0.24373516 0.090318926 0.2208087 -0.37743816 -0.0782558 0.0007756352 0.39673987 -0.47076336 -0.3422086 0.37854072 -0.4250343 -0.15852867 0.5590631 -0.63826865 -0.20878677
56 -0.42626676 -0.28646937 -0.04293895 0.14931552 0.49059522 0.30833656 0.12611668 -0.16779535 -0.028001707 -0.60255384 -0.050081305 0.35434583 -0.032987136 -0.28545225 0.22011098 0.28897098 -0.42630082 -0.028237855 -0.7343663 0.49523228 0.15380518 0.849956 -0.18686879 0.04814312 0.0652281 -0.2248483 -0.21962316 -0.26307526 -0.39204958 -0.6053709 0.83741856 -0.47401205 0.13223077 0.17747675 -0.38391194 -0.004018074 -0.14954004 -0.36645907 0.0048513734 0.33481985 0.124530606 -0.020315472 -0.3065308 -0.5283994 0.4986319 0.37570053 -0.2801358 0.25552514 0.64813733 0.09869688 -0.17802462 0.014976906 0.5384166 -0.24667104 -0.62262064 0.38540843 0.78058827 -0.90865725 0.3742123 -0.317533 -0.20522512 0.2420105 -1.0780171 0.478004
54 -0.32324138 0.43050686 -0.47894454 0.59134996 0.32235482 -0.4188985 0.26518378 0.1785089 -0.389826 -0.32899365 -0.08503183 0.26586112 0.37173775 -0.002782043 -0.026838128 0.38145146 0.08562437 -0.028690139 0.34279335 -0.16206118 -0.17627345 0.2688135 0.148964 -0.29659688 -0.1972264 -0.089626454 0.39242896 -0.41486472 -0.16450742 -0.15030847 0.16751793 -0.3158658 -0.13625437 -0.21645142 -0.4410147 0.41922584 -0.2815148 0.04380761 0.46832803 0.19074848 0.4193285 -0.67971563 -0.34567913 0.30466497 0.13567667 0.10117544 -0.3329075 -0.24233772 0.17703117 0.4348948 0.12295098 0.2532308 0.0327826 -0.024153505 -0.12861377 0.25347793 -0.0651108 -0.2847016 -0.37467408 0.25748712 0.42811024 0.36276308 -0.22898182 0.45597535
14 -0.33844435 0.17081602 -0.57915854 0.24016526 0.24468265 -0.33237076 0.15984468 0.14962892 -0.42418492 -0.26997843 -0.5061417 0.3399483 0.08813905 0.115259744 0.017551737 0.2766986 -0.2280468 0.039147105 0.5345416 -0.06682244 -0.37420005 0.523618 -0.08131894 -0.4435736 -0.121780574 -0.012738437 0.32592306 -0.24718827 -0.28746507 -0.13689555 0.10126999 -0.24070227 -0.10768251 0.024973156 -0.38071552 0.44414288 -0.15927547 0.18378201 0.604163 0.3797838 0.3097968 -0.7758452 -0.34075037 0.15190926 0.09698594 0.22445036 -0.075836435 -0.12690242 0.23954661 0.41774318 -0.1531287 0.34358418 -0.2367661 0.0800768 -0.147067 0.33345184 0.071182616 -0.19178528 -0.5982775 0.25061744 0.4201221 0.3351437 -0.25537074 0.64500976
5 -0.8299132 0.058307864 -0.23533896 0.29302788 0.043168426 0.40129405 0.1775087 0.13340776 -0.39334399 -0.50587887 -0.11383531 0.054366075 -0.02188064 -0.113761686 -0.6455289 0.22275425 -0.34299666 -0.08284173 -0.43356186 -0.04939309 -0.4356811 0.031557377 -0.099840626 0.06150179 -0.2743581 0.13431565 -0.15302877 0.3932067 -0.12776446 -0.5047323 -0.27645415 -0.0070238234 0.2069918 -0.16477223 -0.46726915 -0.18302478 0.37672704 -0.16450925 -0.04720459 0.043269183 -0.06658841 0.19635141 -0.33226097 0.23642065 -0.113958314 0.1303577 -0.53191185 -0.10099987 0.7359944 -0.2738451 0.03622371 -0.1348688 -0.4981699 0.038078465 -0.12987857 0.6583352 -0.5469684 -0.4788543 0.30717877 -0.51662606 0.026973357 0.31114978 -0.52596396 -0.15920115
62 -0.13026278 0.20896268 -0.30357483 0.13348465 0.3975124 -0.0013166006 -0.11380007 0.1739115 0.0029512234 -0.126928 -0.24456288 0.1371495 0.3837941 0.08568126 0.16720237 0.13983984 -0.006655174 0.20427118 0.433663 -0.05523023 -0.41952243 0.56718504 0.054216024 -0.26887015 -0.2363983 -0.09598072 0.38194475 -0.40236807 -0.26043904 -0.11478879 -0.09263382 -0.21398444 0.13516997 -0.057740796 -0.2564786 0.64916754 -0.37034652 -0.21043503 0.61060506 0.15498477 0.21694438 -0.43764243 -0.4015921 0.30281326 0.09117738 0.257173 0.0831385 -0.25905186 0.03391315 0.32468197 -0.12442711 0.3117816 -0.4445723 -0.15278296 -0.24696417 0.6665976 -0.00014630827 -0.35532162 -0.5055977 0.1915582 0.16279136 0.03939259 -0.050770205 0.09261935
8 0.049145266 -0.070280544 -0.5193061 0.29197317 0.3468281 0.17255968 -0.074960224 0.21319562 0.07585421 0.10212199 -0.036903534 -0.3332376 0.050319895 -0.20383397 -0.1424687 0.037656322 0.24481496 0.053465627 0.0817067 0.029850068 -0.409596 0.6594326 0.24607597 0.25354934 -0.3726027 -0.23497973 0.17933138 0.1385611 -0.39092728 -0.18874015 -0.03200625 -0.42834297 0.17888965 0.019857768 -0.20894012 0.19306022 -0.10498041 -0.0039585144 0.43072897 -0.1634219 0.15512687 -0.350111 -0.17285565 0.1986841 -0.31676736 0.13642243 -0.20419024 -0.23227361 0.5120211 0.3661268 0.12997785 0.038853176 -0.20580612 -0.3934146 0.35646182 0.2600976 -0.01206175 0.32081982 -0.16288774 0.23616558 -0.010810962 0.39809257 -0.082651876 -0.08451181
29 -0.42006224 0.02127245 0.039500874 0.37566602 0.22483045 -0.2384434 0.18445973 0.1328124 -0.23821875 -0.25328848 -0.08419829 0.045693554 0.1472899 -0.017051214 -0.47563082 0.51813984 -0.09876508 -0.13604182 0.13234851 0.24315856 -0.49822435 0.2593809 0.07785111 0.04279398 -0.49963868 0.03180093 0.27766144 0.18024127 -0.51069015 -0.23851305 -0.4611702 -0.008045718 -0.18180513 -0.23035532 -0.040972225 -0.11941843 0.12798342 -0.1064854 0.26043668 -0.06361224 0.25670227 -0.25702548 -0.21332343 0.55126035 -0.17613819 0.2593547 -0.29627913 -0.07683366 0.3057715 -0.21025077 -0.020821555 0.2810573 0.28782904 -0.14245209 -0.06597737 0.38460886 -0.26245907 0.050933495 0.30965725 -0.43042076 -0.19416434 0.36139145 -0.5557115 0.2735398
58 -0.10963395 0.08520174 -0.22068447 0.5960867 0.2987304 -0.19552211 0.32025683 0.0028398985 -0.07613595 -0.1051773 -0.082695976 -0.09020537 0.3598717 -0.2036878 -0.45711887 0.26289672 -0.24514231 0.23480737 -0.28982383 -0.1606516 -0.23178339 0.39933223 0.32637945 0.07708834 -0.3739922 -0.10980289 0.22159125 0.017080327 -0.7297758 0.040634524 -0.2297917 0.0665068 -0.038250126 -0.31205496 -0.25558472 -0.17636918 0.04637707 -0.12867545 0.45864472 0.035532806 0.11278548 -0.39791068 0.068904206 0.5602568 -0.18432784 0.31244466 -0.36275443 -0.016367584 0.09170578 0.30750307 -0.17625746 0.3149475 0.08273952 0.0063144662 0.34181634 0.3340763 0.013002933 -0.14448045 0.07505225 -0.114982486 0.21248011 0.24017757 -0.252706 0.3280641
45 -0.32395807 -0.04097474 0.024362784 -0.19276848 0.46974632 0.36634886 0.39795035 -0.124163024 -0.061565414 -0.691273 -0.05991971 0.29969856 -0.015163909 -0.25196943 0.22288954 0.2242198 -0.2901607 -0.15376055 -0.5619397 0.20521496 0.16340767 0.85837144 -0.23077552 0.15344557 -0.07325691 -0.3931293 -0.29549226 -0.21120703 -0.2742184 -0.45658728 0.7877753 -0.30706277 0.19119516 0.15057537 -0.25504827 -0.09110856 0.00970719 -0.354621 -0.09715234 0.25906107 0.1688415 -0.045209408 -0.1494547 -0.5750732 0.24552873 0.32202598 -0.216627 0.16432971 0.69389313 0.33064538 -0.10832576 0.039803635 0.29615957 -0.25635844 -0.6098842 0.31084806 0.741346 -1.2148046 0.26078558 -0.3291625 -0.13535577 0.27068552 -0.88494563 0.35032836
17 -0.04143167 -0.08052387 -0.11695158 -0.4783899 0.10113203 0.5000408 -0.23688763 -0.033472367 0.14881134 -0.58923644 0.12038653 0.07078138 0.10819317 0.1037516 0.26007867 -0.046232738 0.12510651 -0.008790194 -0.32912552 -0.20297979 -0.022010734 0.8060846 -0.10651576 0.19195846 -0.09511538 0.11956968 -0.052914497 -0.343097 -0.2351025 -0.12098416 0.3212899 -0.0650004 0.39150077 0.14222856 -0.21355878 0.44940358 0.006930888 -0.23808227 0.19118342 0.42115825 -0.19225857 -0.019547129 -0.15756732 -0.077339344 -0.20190632 0.24073437 -0.15237486 -0.19812036 0.72529197 -0.26821408 -0.0872099 0.18585771 0.029749172 -0.36296254 -0.73379225 0.57585275 0.5960423 -0.7522736 -0.26559904 -0.47609183 -0.20038095 -0.060836818 0.169073 0.59429276
22 -0.06464101 0.41287407 -0.5193356 -0.17278726 0.23617843 0.28721866 0.33456358 0.109004475 0.29269153 -0.012275992 -0.3034293 -0.010966033 0.2100967 -0.0026998706 0.05816441 0.27773964 0.04017516 -0.21907344 0.05532562 -0.24478494 -0.20945221 0.6617189 -0.050719183 -0.16595146 -0.45884883 0.087888055 0.07753232 -0.003071506 0.09593543 -0.07925719 -0.2552722 -0.43994537 0.16751434 0.3150019 -0.23312514 0.52371436 -0.4254402 -0.17319413 0.5532576 0.27344343 0.15533614 -0.4946211 -0.36785793 -0.0109022055 -0.26096082 0.22823513 0.10926226 -0.13595201 0.22785915 0.2387992 -0.26041603 0.19112256 0.070297316 -0.31010488 -0.3869305 0.35265887 0.14645451 -0.36952594 -0.63120806 0.13227426 0.30453297 0.26192093 0.4732196 0.08841955
42 -0.9147521 0.097440794 -0.2997848 0.29207364 -0.032676358 0.2757766 0.105208136 0.07455628 -0.354744 -0.5179777 -0.1834009 0.15794241 -0.075064994 -0.11646265 -0.62304765 0.24401654 -0.44142216 -0.25775436 -0.39632738 -0.029338293 -0.36541602 0.04132612 -0.2545303 0.093921036 -0.22112218 0.31464672 -0.28671265 0.6578104 -0.46224114 -0.8025601 -0.3684382 0.14863135 0.46544337 0.16198261 -0.46477664 -0.2206988 0.37091178 -0.39533567 0.09183182 -0.021829292 0.016765501 0.24590065 -0.16927844 0.077298686 -0.4135749 -0.05203176 -0.41759655 -0.013677077 0.7657115 -0.12957844 -0.13433446 -0.16062708 -0.5157947 0.0074419654 -0.22136904 0.549684 -0.5065547 -0.50455755 0.2988123 -0.5060663 0.08431219 0.22906531 -0.61066437 0.05609107
25 -0.14237049 -0.14758506 -0.32059234 0.30392167 0.2828246 0.266874 -0.07350951 -0.06773089 -0.0765036 0.26163787 -0.28456205 -0.14541475 0.038300578 -0.2676736 -0.32222986 0.18051939 0.25214857 0.06898548 -0.17073217 -0.064222366 -0.37760592 0.5700979 0.04296434 0.34665555 -0.3928721 -0.25935468 0.2828744 0.102893986 -0.3853786 -0.22334354 0.14469282 -0.66299164 0.19946435 -0.26403442 -0.22362669 0.1486849 -0.18025061 -0.20858504 0.38405815 -0.29579136 -0.074292876 -0.2365234 -0.2062662 0.24903479 -0.38298446 0.30641842 -0.25567904 -0.28514972 0.3679171 0.20154211 0.2538714 0.069975816 -0.122436605 -0.23794992 0.22040068 0.36311457 -0.07428526 0.28704423 0.081912376 0.45824057 0.15498143 0.51194227 -0.1325912 -0.2131395
55 -0.38332945 0.00882783 0.10961804 0.29438266 0.1895347 0.01368058 0.3398942 0.02729021 -0.27035314 -0.631778 -0.054744083 -0.037275583 0.36190948 -0.13527614 -0.41942027 0.60501283 -0.13356747 -0.45894995 0.10716699 0.27794227 -0.3428888 0.16665766 0.18865386 0.1153705 -0.42707184 0.16798568 0.2887627 0.16408794 -0.5966936 -0.44656494 -0.31902242 -0.13579084 -0.16327581 -0.2109949 0.014481722 -0.31598288 0.29558325 0.067971036 0.111858696 -0.066301905 0.2249822 -0.1522842 -0.36000928 0.39294112 -0.04296911 0.19217251 -0.5916979 0.012398144 0.5780275 -0.33998492 0.025345411 0.24932396 -0.098293126 -0.088263325 -0.17200112 0.27755 -0.4370235 -0.017548904 0.2921124 -0.29562727 -0.22776115 0.45071924 -0.34187004 0.05588264
57 -0.39146844 -0.32646218 -0.5585007 0.30827457 0.14584255 0.19139479 0.18683055 0.39545053 0.1366997 -0.38996574 -0.022536604 0.054285556 0.12708619 0.01852476 -0.5127206 0.06816605 0.058243636 -0.016509183 0.038602173 0.07224167 -0.38688165 0.19081563 -0.20056388 -0.010644419 -0.41567293 0.4276372 0.29367706 0.1450265 -0.69356555 -0.31694955 0.5258476 -0.19854112 0.3112515 -0.59821445 -0.32938176 -0.23777103 0.15572472 -0.3735678 -0.1322165 0.16313638 -0.012676911 0.10709721 0.05246354 -0.18560979 -0.24625207 0.25056937 -0.24787052 -0.07735193 0.26845142 0.018444408 0.034472518 0.4578787 -0.34755176 -0.044601165 0.25951102 0.4095511 -0.4793173 0.03336079 0.32907715 -0.45616606 0.05260292 0.42028564 -0.58187085 -0.10451939
16 -0.24774109 0.4343123 -0.7033559 0.49154305 0.40103513 -0.506722 0.2884988 0.22956787 -0.15656982 -0.15246367 -0.15415604 0.023394085 0.38060972 -0.050903805 0.014069559 0.28030854 -0.34442034 0.16143572 0.19498321 -0.13229959 -0.1900323 0.2029581 0.24828994 -0.16279297 -0.18262905 -0.09588708 0.18622853 -0.28652003 -0.16258875 -0.21715604 0.0023720278 -0.3112295 0.02609241 -0.3958924 -0.43050447 0.2417914 -0.10446456 0.25368413 0.40768704 0.040224355 0.31040275 -0.5192512 -0.2679208 0.3841987 0.015452432 0.21473874 -0.26913884 -0.115627185 0.07819566 0.30293617 -0.052273277 0.32625356 0.053051915 0.103027366 -0.074850656 0.26305377 -0.20192885 -0.15348616 -0.20264624 0.14680567 0.1341229 0.35439315 -0.30862018 0.4753728
15 -0.6390787 -0.2799723 -0.050558925 0.044275925 0.5472569 0.23593237 0.1708737 -0.21419343 -0.066052355 -0.62305653 -0.2056556 0.3764004 -0.022033235 -0.31535134 0.20075774 0.20493928 -0.47658858 -0.054731485 -0.6044813 0.34867126 0.24899107 0.94894314 -0.32471442 0.14846085 -0.08567991 -0.3592887 -0.23007011 -0.17414993 -0.36341074 -0.4644999 0.8780041 -0.4692147 0.18062486 0.14878337 -0.3963143 0.005206194 -0.22708915 -0.22438957 -0.056998488 0.18886614 0.20124035 -0.06718377 -0.27228892 -0.47256264 0.44247273 0.45957705 -0.310238 0.19687267 0.5467961 0.15747006 -0.10150837 -0.13522936 0.46909896 -0.46479252 -0.67276824 0.2988166 0.7128517 -0.92058986 0.5790587 -0.10866932 -0.21210104 0.14758167 -1.3197811 0.5106713
43 -0.984327 0.12688154 -0.271825 0.3459547 -0.1902194 0.2227793 0.2808809 -0.18692976 -0.3088688 -0.6005514 -0.07350441 0.34169486 -0.15100461 -0.16893773 -0.5290224 0.100555494 -0.41422555 -0.15103516 -0.43487108 -0.26384938 -0.48508453 -0.0045949565 -0.3337917 0.07199223 -0.21388973 0.26771376 -0.18009396 0.44897014 -0.44616982 -0.6811935 -0.39760572 0.017148755 0.4695226 0.16473407 -0.55618143 -0.23646916 0.35983607 -0.3937216 0.19281325 0.0219134 -0.033135295 0.085157 -0.31735054 -0.019757843 -0.4099539 -0.09616981 -0.46883896 -0.055091698 0.6477292 -0.21395983 0.043147977 -0.24441777 -0.6066929 0.023029737 -0.23283668 0.47679517 -0.4876024 -0.63481694 0.4112294 -0.62221366 0.029761055 0.39188236 -0.518594 -0.16908608
44 -0.6730985 0.0554413 -0.6705941 0.35944232 0.25118983 0.024351167 -0.08814918 0.12415447 -0.27577415 -0.11199933 -0.45225424 0.40075842 0.35513046 -0.11394215 0.32603663 0.10611879 -0.14352675 0.2139969 0.4049779 -0.2505201 -0.16530064 0.56296855 0.052802026 -0.44679332 -0.02984615 0.12204203 0.29810488 -0.44196635 -0.4850805 -0.16786009 0.24646197 -0.24606718 0.13176525 0.16493003 -0.4434546 0.4977346 -0.24837196 -0.039649427 0.71998286 0.085160434 0.42586964 -0.8746313 -0.272723 0.18631415 0.19367841 0.15318602 -0.14334653 -0.045981888 0.03186894 0.54976726 -0.18965445 0.05869843 -0.30520508 0.068575665 -0.25766012 0.3412305 -0.15279286 -0.28555503 -0.55958927 0.32342666 0.37588257 0.3497716 -0.17299786 0.54941654
51 0.2060121 -0.472326 -0.66966414 0.20206068 0.23690654 -0.0004529637 -0.20283407 0.02650555 0.2192349 -0.07952312 -0.36718696 0.19235903 0.026333889 0.13531798 -0.6268586 0.17973152 0.09425907 0.19698255 -0.31601155 -0.04354851 -0.40797368 0.40645704 0.024245359 0.43170118 -0.37677577 -0.17064811 0.28506455 -0.15910402 -0.39789465 -0.31479788 0.19642289 -0.46664315 0.097835764 -0.36971536 -0.32358658 0.19155005 0.096407115 -0.31304345 0.13972986 -0.077857785 -0.12425856 0.06764864 -0.04184129 0.41557154 -0.43629417 0.18573634 -0.014278867 -0.26276276 0.826017 -0.0006185268 -0.04355602 0.5246471 -0.2683166 -0.13405085 0.2569883 0.027110562 -0.24690728 0.08009086 0.4324099 0.29354823 -0.16220059 0.49251857 -0.47260585 -0.08971673
