48 64
19 0.19766626 0.106171936 0.015151078 0.11644217 -0.14636135 0.09284165 0.17239186 0.02076267 0.023527509 0.11861287 -0.3975098 -0.16310766 -0.112240285 0.30305243 -0.27585658 0.15624686 -0.38026792 0.120821334 -0.0632021 0.05363472 0.24243313 -0.12946272 0.08971402 -0.22696362 -0.17329964 -0.16494839 -0.061871637 0.06229109 0.177869 -0.18053621 -0.0390245 -0.52930045 -0.55705225 0.10515722 -0.33010468 -0.07451124 -0.0896425 -0.18497922 -0.09989948 -0.19985537 -0.40165305 -0.04379018 0.009322706 -0.38995713 -0.24061029 0.23267095 -0.09519282 0.054168224 -0.43305382 -0.33402067 -0.33408123 0.13918254 0.14954282 0.17864414 -0.04271303 0.044767182 0.074647896 -0.087447666 -0.22521731 -0.3833363 -0.1633615 -0.26280808 -0.18319276 -0.111342534
20 0.046858493 0.11595063 -0.12495905 -0.112107806 -0.014327303 0.18802443 0.15033966 0.11133892 0.15870099 -0.105271116 -0.4843343 -0.036019597 -0.11689388 0.10021601 -0.27473617 0.10767695 -0.222434 0.16915375 -0.04762622 -0.0601593 0.1351279 -0.12707824 0.10447616 -0.47951794 -0.10381765 0.055552 0.3156954 0.047559272 0.1845504 -0.30426434 0.20158774 -0.54896384 -0.6453413 -0.29875323 -0.2966253 -0.100362554 -0.20006654 -0.010630858 -0.24080108 -0.26749593 -0.33851308 -0.18832856 -0.32235074 -0.26264867 -0.09516174 0.24904083 -0.117428385 0.12547776 -0.15186267 -0.2570804 -0.17694539 0.12568879 0.06430273 0.12153979 0.19071734 0.058849715 -0.048292324 -0.18953829 -0.22178476 0.021214008 -0.037809502 -0.29604918 -0.2816356 -0.37399998
10 0.46614623 0.46316752 -0.23218024 -0.15093002 0.017443005 -0.10555928 0.47502533 0.10298106 -0.1597095 0.08181414 -0.48219135 -0.25172517 -0.024505103 0.3130552 -0.34044772 0.45959625 -0.3200496 -0.029542457 -0.22576377 0.23808451 0.2279044 -0.08802098 0.052146208 -0.21483855 -0.14875482 0.07570691 -0.13787816 -0.033239715 0.16710299 -0.1359894 -0.16547853 -0.40204474 -0.48678547 0.3281985 -0.35115996 -0.11301704 -0.14389901 -0.15316182 -0.24681614 -0.13222256 -0.32747188 0.4475845 0.056362707 -0.39216924 -0.3336378 0.35190448 0.015358735 -0.27855912 -0.29604784 -0.3807157 -0.24586664 0.10237026 -0.04945472 0.0505948 -0.025889222 0.1688941 0.025236169 -0.15413947 -0.08521712 -0.45962834 -0.16673517 -0.13798064 0.14752612 -0.04104366
42 0.40298575 0.07680384 -0.6494529 -0.03555648 -0.19979689 -0.79265374 0.35464993 -0.11010223 -0.21689095 -0.3171335 -0.116203055 -0.011731939 0.0025377504 -0.09205276 0.059584286 0.17508236 0.43704093 0.16892582 0.65807825 -0.0459854 0.39258325 -0.19907978 0.5047325 0.051108696 0.27962223 -0.36238942 -0.1339888 0.0753533 0.35111478 0.22309679 0.08486992 0.21612258 -0.497896 -0.19508989 0.34019652 -0.61011285 -0.34470493 -0.67693603 0.2637532 0.13894098 -0.6455556 0.095895365 -0.103480615 0.07888066 0.036167953 0.75966966 -0.4804253 -0.25572038 -0.0020682993 0.6150071 -0.7506355 0.5439698 0.08461139 -0.634272 0.0036901175 0.2950636 -0.11686085 0.28574333 0.22721982 -0.053879224 -0.16443504 -0.06141391 0.4038685 -0.41596514
6 0.45319873 0.23270883 0.08050308 -0.15937383 -0.2108917 -0.14535473 0.43988192 0.18202275 0.21040119 0.043027565 -0.3344008 -0.16029444 0.1274247 0.20619155 -0.12912236 0.2523841 0.04731069 0.05540397 -0.020358188 0.4219831 0.40935805 0.15720211 0.18406494 -0.2987884 -0.14834684 -0.13941914 -0.2992044 -0.017308192 0.08689885 -0.3393587 0.13938971 -0.27694184 -0.5319472 0.51640713 -0.39297283 -0.18479832 -0.0037681093 -0.4458019 -0.30089125 -0.20322378 -0.30635166 0.3755255 0.2349401 -0.40015525 -0.37848318 0.13068916 -0.08774878 -0.31179276 -0.20272487 -0.21657135 0.030441487 0.339933 -0.067857824 0.0012550502 -0.049006883 0.2720518 0.1938331 -0.33401558 -0.27737248 -0.4147242 -0.042249955 -0.2869353 0.03513615 0.04540476
25 -0.075091675 -0.0056561776 0.13084735 -0.4147076 -0.08614676 0.21390916 0.10978087 0.13571315 0.06906556 -0.24656834 -0.50812364 -0.011748337 -0.21972618 -0.048361734 -0.31908187 -0.025267802 -0.25277025 0.22933571 0.035517156 -0.044171248 -0.16425902 -0.3391466 0.07286564 -0.46124172 0.066967644 -0.23619325 0.39781108 -0.17173937 0.111456335 -0.115061566 0.67115676 -0.37794033 -0.6200569 -0.34428462 -0.017571101 -0.1754375 0.05743079 0.12098709 -0.2932844 -0.26956958 -0.10562691 -0.18400943 -0.39713 -0.21641348 0.12789294 0.30864957 -0.074826814 0.007981744 -0.1602244 -0.1599571 -0.35855493 0.36969164 0.061432518 0.18130292 0.13046703 0.22816886 -0.13803992 0.038461138 -0.23154782 -0.019535864 -0.20369823 -0.32920858 0.04636447 -0.07477536
23 0.14983603 -0.03818499 0.3633696 -0.18214726 -0.2548251 0.20852956 -0.012441799 0.08995563 0.076996304 0.042758137 -0.68650484 -0.12004341 -0.15894172 0.0025601224 -0.2709321 0.1408059 -0.3003215 0.123031616 0.1647073 0.054312233 -0.11572585 -0.34642106 0.15414126 -0.42673442 0.06858928 -0.018262988 0.37706885 -0.172434 0.10910749 -0.07745476 0.4187622 -0.5434558 -0.60790145 -0.24031653 -0.18004927 -0.29130524 -0.051982235 0.07401343 -0.08300797 -0.30058578 -0.20874116 -0.046444945 -0.21128769 -0.14739521 0.020449992 0.15058139 -0.114203885 0.20561247 -0.20938748 -0.13410178 -0.27652007 0.3237063 0.1560414 0.103439026 0.16471694 0.11161072 -0.09820665 0.10236793 -0.15634552 -0.023070613 -0.2507131 -0.28645098 -0.2700548 -0.13423255
37 0.2627664 0.62478197 0.23556675 -0.051891454 0.2259888 -0.8732433 0.7910011 -0.62489545 0.16300477 -1.2435274 -0.19480626 0.20833986 0.33692133 -0.19147749 0.07814572 0.6809855 -0.21495794 -0.06507624 0.30860612 0.7174701 0.075660095 0.27151898 0.41191405 -0.29919246 0.34456766 -0.07544586 -0.20833094 0.05737045 0.25402126 0.20737043 0.3936028 0.24949582 -0.63519436 -0.32925674 0.36220282 -0.07442014 -0.61967266 -0.49477988 0.062857784 0.121590786 -0.07432651 -0.026526667 0.034008153 -0.4999414 0.12542485 -0.5019314 0.14900555 -0.09671829 -0.03422262 0.29173258 -0.80238503 0.02227086 -0.11313545 -0.24208957 -0.21939579 -0.05860739 -0.55047745 0.24522476 -0.06844326 -0.6559595 -0.85114706 -0.91038734 -0.07306875 -0.36272243
33 -0.11598602 0.45270833 0.70551604 -0.6867729 -0.024134992 -0.17176072 0.28342548 0.08311916 -0.15175292 -0.4753659 -0.009836626 0.2033121 -0.5057756 -0.011007464 -0.110071 -0.0024360714 0.0044935625 -0.07970464 -0.08815731 -0.21991292 -0.23183289 -0.12254932 0.4865978 -0.027487926 0.49651808 -0.08077488 0.36061922 -0.25202727 0.26094192 -0.10919222 0.60883385 -0.18877853 -0.5047577 -0.68546754 0.15017228 -0.531946 0.29592976 -0.04254941 -0.3700793 -0.46229482 -0.20755242 -0.39335254 -0.79279166 -0.08353984 0.25012827 0.30338496 -0.25524727 0.20082895 -0.37830123 0.44087464 -0.79571605 0.34119925 0.18727759 0.18519938 -0.04141279 0.25079054 -0.42083192 -0.06561031 0.05810612 -0.10600767 -0.5109514 -0.185467 0.08727462 -0.047848504
35 -0.048707236 0.6775888 0.22301254 0.0442168 0.17613849 -0.94803965 0.84816784 -0.66780573 0.18617204 -1.3173001 -0.25733963 0.17095923 0.39874318 -0.064247236 0.048701957 0.68395424 -0.2480479 -0.05381186 0.32513338 0.59852517 0.09719018 0.21252996 0.39955997 -0.31542525 0.33489275 -0.047033943 -0.28376397 -0.036410525 0.23991796 0.21111926 0.42600054 0.22841528 -0.6336911 -0.27317497 0.33399245 -0.19136819 -0.6373429 -0.50826365 0.04506211 0.1050402 -0.014888014 -0.016088404 0.06144968 -0.4329209 0.11316961 -0.5069545 0.100550644 -0.1732561 -0.047142893 0.35583535 -0.8108303 -0.014739048 -0.050759543 -0.2304122 -0.21308982 0.0032490403 -0.5420629 0.18003917 -0.17047936 -0.57951355 -0.7850383 -0.81815124 -0.13292356 -0.38767374
30 -0.19248423 0.2924878 0.68705857 -0.47962782 -0.04000793 -0.044519763 0.14384373 0.19801483 -0.11125029 -0.52611154 0.041403174 0.32457238 -0.454519 0.07768934 -0.16783518 -0.024019407 -0.05702544 0.07047235 0.0048990287 -0.2043818 -0.1618708 -0.24794686 0.40003735 -0.16409287 0.45980525 -0.09009318 0.37452084 -0.23861048 0.103471145 -0.027407324 0.5863194 -0.27009866 -0.57541454 -0.74496615 0.13450274 -0.38219553 0.3367792 -0.036732815 -0.2850209 -0.44159746 -0.24117927 -0.4136234 -0.67214984 -0.116417825 0.256963 0.31779718 -0.3204921 0.18616796 -0.31734514 0.33625817 -0.72669274 0.26961747 0.15671875 0.07368102 -0.006989823 0.23156084 -0.34920713 -0.20257065 -0.065894306 -0.112256475 -0.52964216 -0.23726821 0.10685022 -0.02680446
43 0.3458161 -0.00013403903 -0.6778886 0.16438843 -0.16649155 -0.70064825 0.4815446 -0.014476653 -0.19429983 -0.29012087 -0.006394426 0.021487905 -0.02756706 -0.07123782 0.118570596 0.2654502 0.32227743 0.14696123 0.68281484 0.057846863 0.23282723 -0.22233318 0.44416496 0.048693437 0.27840027 -0.44264305 -0.07375085 -0.046265833 0.4690184 0.17321627 0.0033860812 0.30953243 -0.4914306 -0.24044056 0.26654556 -0.6552666 -0.35435566 -0.7656946 0.21902405 0.15093571 -0.66621614 0.14432995 -0.21529208 0.05230121 0.009376428 0.5816441 -0.47726354 -0.24481176 -0.09099142 0.5698754 -0.7905368 0.57520056 0.11000624 -0.66080874 0.048420485 0.3918414 -0.10305341 0.26700523 0.15102036 0.020035906 -0.14092523 -0.04330041 0.45702696 -0.39530495
39 0.37627885 0.020698542 -0.7333308 0.2482122 -0.14807625 -0.6823536 0.5847186 -0.019499527 -0.25958103 -0.28650597 -0.028735023 -0.062189996 -0.07630894 -0.09422662 0.2836753 0.21382114 0.27578464 0.1284547 0.76941544 0.1828882 0.18893617 -0.17509782 0.45016995 0.06356056 0.29461998 -0.53928125 0.0068602567 0.09100263 0.48569968 0.20115241 0.08926054 0.22446075 -0.5254624 -0.32358506 0.24020341 -0.7185279 -0.29162413 -0.5964138 0.11577304 0.01839006 -0.55211765 0.061431877 -0.023865541 0.1035693 0.019886237 0.7048216 -0.2933256 -0.17046097 0.0038702963 0.6893499 -0.7247812 0.40425834 0.03882512 -0.593929 -0.10781111 0.4943817 -0.03314543 0.10456233 0.2155137 -0.11091607 -0.1609256 -0.0027169792 0.36999202 -0.43535194
44 0.47889805 0.146917 -0.61028963 -0.001864732 -0.18927294 -0.8202646 0.3673012 -0.06825172 -0.23848975 -0.37220183 0.018645948 -0.12653269 0.05985742 -0.11884202 -0.040307164 0.1506466 0.5588859 0.17640136 0.72124815 -0.030298587 0.29249492 -0.30621862 0.5589889 0.054246094 0.2254804 -0.48456421 -0.07357655 0.02833786 0.39939758 0.16244078 -0.0063727247 0.23486502 -0.46020043 -0.20893711 0.27947775 -0.58315665 -0.29936698 -0.72234493 0.29177386 0.061530128 -0.59111613 0.12189059 -0.044107348 0.1297021 0.05334351 0.75055254 -0.33414632 -0.16560327 -0.011728477 0.5483896 -0.7862438 0.53382164 0.10388734 -0.6224641 0.053248823 0.27130836 -0.13112576 0.25551698 0.11742231 -0.03840745 -0.19273476 -0.08017469 0.37197518 -0.47236425
14 0.25030217 0.0057146866 0.053021714 -0.1655785 -0.38680986 0.08981974 0.2644318 0.31728008 -0.026423218 -0.1933454 -0.46782553 -0.15154798 0.1524796 0.21431647 -0.12708107 0.16131951 -0.06920616 0.21535695 0.059294734 0.260485 0.3231784 -0.01713422 0.07987206 -0.4313515 -0.19575708 0.043087512 -0.0051976712 0.12654035 0.064583994 -0.34070358 -0.0020258734 -0.40299067 -0.4011336 0.39044556 -0.34657782 0.008679936 -0.0802639 -0.43095428 -0.33373252 -0.12268543 -0.32699108 0.022384485 -0.07991306 -0.3736252 -0.2842805 0.08299383 -0.16270122 -0.1516431 -0.29675427 -0.042630285 -0.14412175 0.06989864 0.06915253 -0.00018793541 -0.13416316 0.083396584 0.22140376 -0.40436685 -0.35179478 -0.49435106 -0.00056899746 -0.23435003 0.051505238 -0.16229238
18 0.06262677 0.6535712 0.017087922 0.18595836 0.093859546 -0.0028228618 0.069399856 0.23294005 -0.014539302 0.0210665 -0.41989988 -0.3484592 -0.15487379 0.48003864 -0.27393186 0.32847068 -0.3365062 -0.05418429 -0.16101709 0.060337286 0.16098627 -0.17839095 0.18604605 -0.266578 -0.09833499 0.01753046 -0.015323872 0.017504333 0.106512085 -0.1121729 -0.27838075 -0.5381991 -0.45658964 0.16714068 -0.38531625 -0.12738922 -0.33861116 0.17138049 0.052535478 -0.10095048 -0.43818626 0.43398678 0.11877816 -0.5781486 -0.31103903 0.37511453 0.0073334333 -0.057389636 -0.24387267 -0.20128237 -0.4218766 0.1970893 -0.11923017 -0.046593454 -0.017629236 0.2654134 0.116137445 -0.055162717 -0.030891506 -0.47186217 -0.2671173 -0.2568792 0.15400779 -0.14286561
9 0.34382027 0.21161348 -0.06161346 -0.23473997 -0.17577732 0.020729728 0.41745415 0.1609272 0.0908169 0.07471867 -0.14697738 -0.21049292 -0.034407657 0.17199776 -0.2400378 0.3167661 -0.26803854 0.11913214 -0.010330008 0.21254194 0.3866507 0.078330755 0.12699571 -0.3919055 -0.23546855 -0.041201524 -0.1318557 0.06747216 -0.012352813 -0.32730222 0.001904125 -0.51071006 -0.48721772 0.336749 -0.5606949 -0.13738199 -0.19813047 -0.2669904 -0.24797972 -0.32381207 -0.42017552 0.3546063 0.046873566 -0.345603 -0.29021382 0.12090716 -0.17652094 -0.14592332 -0.23654382 -0.102244735 -0.18433797 0.02202152 -0.006380311 -0.24878047 -0.1778136 -0.04128612 0.20207788 -0.09881715 -0.14227112 -0.59374565 -0.1620609 -0.09333173 -0.0483359 0.016349517
4 0.594515 0.25663707 0.11773693 0.1244879 -0.28092447 -0.39324197 0.22460558 0.33306074 0.1348462 -0.24436791 -0.19656979 -0.13372228 0.32784587 0.18980715 0.078281365 0.17137845 0.10854612 0.11205208 -0.26438394 0.4762675 0.44906756 0.31431088 0.4039036 -0.3657859 0.07159556 0.007014526 -0.277483 0.035422783 -0.0929856 -0.4230221 0.2628798 0.008560743 -0.59820193 0.27176592 -0.26944435 -0.0005974497 0.1701898 -0.76486963 -0.1659683 -0.17139366 -0.5750285 0.22391543 0.13374889 -0.35347912 -0.39668238 0.011910242 -0.22643651 -0.14074379 -0.23007853 0.466888 0.23310994 0.35334924 0.004155837 -0.098982096 -0.05746699 0.37652773 0.4852367 -0.49700728 -0.5083666 -0.4509955 0.05561308 -0.5094341 -0.09370508 -0.06584502
27 -0.0800037 0.08797733 0.6015901 -0.5235459 -0.25868952 0.04036631 0.15556026 0.12179281 -0.015982592 -0.3660506 -0.27942428 0.09613468 -0.5795856 0.014914905 -0.1585108 0.0043785376 -0.016442282 0.03179981 0.070844874 -0.15150556 -0.14143012 -0.29671168 0.39776114 -0.3018835 0.27019504 -0.21183737 0.2926822 -0.13064985 0.163418 -0.015907472 0.45461076 -0.3064084 -0.5607489 -0.37248355 -0.007174692 -0.35291323 0.094153136 0.13395365 -0.24299684 -0.46346143 -0.1036309 -0.3615238 -0.5545332 -0.13165677 0.35268217 0.15113547 -0.22457026 0.09348932 -0.27235678 -0.027660796 -0.54223716 0.30140457 0.1004486 0.30407813 0.031387623 0.27910846 -0.22240798 -0.111757144 -0.21803483 -0.0076380353 -0.5163637 -0.16238834 0.268132 0.1069291
5 0.59106946 0.0202854 0.216424 0.10732745 -0.2985201 -0.15908386 0.42289972 0.35155216 0.12112009 -0.2906681 -0.17284891 -0.25175905 0.18675537 0.29696435 -0.060720198 0.25401843 -0.006242151 0.11351192 -0.0909347 0.37533352 0.5726362 0.28732803 0.32738018 -0.3769919 -0.14660607 0.046903268 -0.38435993 0.09175856 -0.20470269 -0.480989 0.025720032 -0.24031837 -0.5402921 0.22056185 -0.3332679 -0.20329285 0.12274713 -0.5175082 -0.32800972 -0.16655633 -0.28022105 0.1795331 0.032490503 -0.39027035 -0.29998693 0.10085901 -0.18314908 -0.1553195 -0.07351666 -0.011013187 0.012195404 0.3388995 -0.015313652 -0.11160882 -0.14939669 0.20685814 0.4101334 -0.34976202 -0.42617366 -0.33807433 0.058573913 -0.42267066 0.14804192 -0.018489521
0 0.26642838 0.45353553 -0.83142865 1.4474199 0.05842408 -0.6718444 1.3825673 -1.0820768 -1.0131294 -0.10185922 -1.5594738 -1.1499064 1.8180935 -0.7581341 0.4130706 1.31393 0.34502771 1.5473762 2.4873204 2.2106445 -0.6640107 0.44733828 -1.0510863 -1.9783895 -1.5599451 -0.89304715 -1.3648914 -1.1862401 -0.08627989 -0.31037694 -0.50086266 -0.38441867 -3.3843775 -0.5177195 1.2580398 0.80645186 -0.65067345 0.33881852 0.88853025 -0.52428925 0.41956782 0.95760536 1.2753234 -0.13555717 1.1345327 1.6481087 -1.1752026 -1.8308853 0.31375986 0.25677058 0.2111716 1.5291362 0.85040164 -0.7068358 1.5948815 0.17428061 -1.172 1.5022389 -0.5802962 -0.72593534 -0.24040736 -1.9492643 0.2571522 -0.009902196
47 0.44404018 -1.3947561 -1.2832099 0.13370931 1.5607018 -0.4077422 0.3097758 -0.47132978 -1.2386589 -0.014850491 -1.9492112 -0.0021168266 1.0936892 -0.06770513 -0.83989924 2.0826273 0.11182957 1.7578384 1.9882034 1.8634584 1.5595849 -0.9547356 1.3318354 -0.7826397 0.3133371 -0.8182515 -0.37233087 -0.81060076 -0.71488905 0.70014703 2.120369 0.21594533 -2.4726903 0.7830985 0.5118625 -1.2642423 -0.86271954 -1.1338629 2.109126 0.81539136 0.035635218 0.8375867 1.4773914 0.03830922 -0.009657821 -0.8738031 1.2804552 0.37457696 0.3763485 -1.2522342 -1.7859367 -0.33548078 1.0532612 -0.45001435 -0.3898861 2.0431392 1.0368745 1.7216334 -0.46831694 -1.2161708 1.2105293 -1.9496477 0.31707546 0.054663826
46 2.428728 -1.4704312 0.37993735 -0.82961583 -0.17919846 -2.064398 -0.16598919 -0.0371176 1.0585109 -0.67808366 -1.1498233 -1.1849341 1.5934901 0.6496872 -0.03354614 0.77820164 -1.9754395 1.446963 1.9109449 0.97221386 1.7911677 -1.3691884 -1.4132202 -1.5287203 -0.39322197 -1.9936273 -0.91976666 -1.0547572 2.4253297 1.4788338 0.45615688 -0.012111927 -0.62338805 -0.0131650595 0.91837335 -0.1486045 -0.7014638 0.4326172 0.29064882 0.10146032 -0.29991183 1.2269912 0.860111 -0.48855734 0.79522395 -0.70325184 -0.32838035 -1.779304 1.7985352 0.052437656 -0.9029961 1.053157 -1.5450298 -1.3365421 0.8224109 1.6232482 0.40166226 1.0034277 -0.8225713 -0.584303 0.019061096 -1.8368459 -0.92612374 -1.7287294
3 0.48486373 0.27943504 0.25030968 0.06309067 -0.4234413 -0.33772627 0.34472865 0.3629437 -0.0016816261 -0.18964183 -0.17191918 -0.13402426 0.31986013 0.10110893 -0.01959309 0.26989648 -0.051336903 0.031852096 -0.14029567 0.44929203 0.51290107 0.32746023 0.35013637 -0.30276203 -0.052676808 0.027083002 -0.39389524 -0.076444864 -0.15142792 -0.40649018 0.12926735 -0.14643276 -0.511751 0.2958227 -0.28221014 -0.082884125 0.17213371 -0.6011576 -0.14908092 -0.13077024 -0.45195115 0.33010077 0.079062074 -0.3094663 -0.30451435 0.12824991 -0.1520422 -0.16765174 -0.2247291 0.30350474 0.03518672 0.2781058 -0.1086046 -0.104514934 -0.03320097 0.32638365 0.5571319 -0.464496 -0.46316236 -0.5140571 0.16022146 -0.53114384 0.06400583 -0.08221526
7 0.4948121 0.5657454 -0.21333371 -0.25216505 -0.10266634 -0.24559009 0.38820073 0.33498666 0.05070631 0.13847072 -0.29366124 -0.22789204 0.26157182 0.22593084 -0.18192062 0.5621295 -0.39360264 -0.043168716 -0.10983475 0.28916264 0.37945336 0.14044122 0.26346612 -0.13940868 -0.14396551 -0.19843099 -0.21211295 -0.026152257 0.1063006 -0.043549478 -0.014346253 -0.39538676 -0.5612531 0.35402346 -0.50755906 -0.13128951 -0.17462549 -0.2740052 -0.20653781 -0.15842864 -0.35337177 0.6237943 0.0031758545 -0.37164643 -0.25733304 0.3138016 -0.03698679 -0.30400953 -0.24772544 -0.19670266 -0.12558414 0.01352326 -0.049455307 -0.017725693 -0.079517476 -0.08373288 0.10514727 -0.24966294 -0.1803279 -0.41846424 0.03177975 -0.21323529 0.07105035 0.1870993
26 0.11748358 -0.027846748 0.4743367 -0.39409474 -0.16309634 0.09360573 0.0703817 0.25070354 -0.102162 -0.34371194 -0.45617312 -0.11395179 -0.18155177 0.001579601 -0.10247615 0.08678806 -0.3331618 0.302939 0.2973153 -0.007818092 -0.18397704 -0.4103325 0.1373375 -0.50050986 0.11158715 -0.11974045 0.40719715 -0.1745965 0.0014531182 -0.09517716 0.717248 -0.4566413 -0.53976846 -0.23942223 0.021032548 -0.30724517 0.29124752 0.0881179 -0.16853382 -0.23682697 -0.06299068 -0.13492958 -0.35028455 -0.1844094 0.27360576 0.16028598 -0.14664073 0.1121322 -0.13309598 -0.01222221 -0.4121387 0.4391561 0.28951588 0.27056435 -0.04084298 0.08739062 -0.24225882 0.049751807 -0.24906443 0.21311352 -0.3116819 -0.27542055 0.24475487 -0.014222064
15 0.3539399 0.0927235 -0.12621473 -0.09665219 0.1203036 0.419453 0.012669189 -0.04255126 0.06534876 -0.18394418 -0.35055488 -0.08271997 -0.016222978 0.1463329 -0.14586852 0.06656551 -0.13564488 0.17939305 0.0013521969 0.08563581 0.31360406 -0.038978346 0.068538845 -0.30974448 -0.14770237 -0.07758091 0.24137007 0.060720377 0.022189738 -0.40341416 0.13652588 -0.5950678 -0.44342285 -0.024819558 -0.39235944 -0.060378566 -0.15215957 -0.21303873 -0.27369875 -0.31577072 -0.17475703 -0.102922864 -0.35463065 -0.28967306 -0.050389145 0.112250134 -0.19243 -0.2557929 -0.17640896 -0.1579953 -0.30600864 0.25843218 0.12999052 0.04867832 -0.0034981463 0.10046069 0.17798507 -0.29649365 -0.3766638 -0.2823339 -0.08732446 -0.2562891 -0.25136477 -0.25544485
17 0.11045998 0.23748782 -0.1284017 -0.22465722 -0.10827224 0.3015578 -0.052890368 0.05914336 0.12413976 -0.15736026 -0.5213263 0.08331198 -0.005031055 -0.013538934 -0.21674459 -0.0040983763 -0.2756627 0.15632144 0.09745003 0.025617328 0.062097844 -0.4627931 0.23680983 -0.49991956 -0.012611136 -0.033734266 0.43737262 0.122839935 0.11417068 -0.2821686 0.32208842 -0.43713278 -0.67930704 -0.40580526 -0.31389454 -0.066003546 -0.16762729 -0.06468937 -0.17999893 -0.20173873 -0.069223106 -0.35398287 -0.42906976 -0.13929127 -0.009533871 0.07579914 -0.07025958 -0.11420419 -0.036517706 -0.20973238 -0.44275132 0.32611123 0.20184682 0.26186204 0.25872776 0.2456198 0.0033049202 -0.09966672 -0.2183734 0.000306938 -0.039555587 -0.30605537 -0.24842423 -0.022329835
8 0.38354328 0.4572144 -0.036767613 -0.15520172 -0.20958726 -0.21722226 0.50383866 0.18314242 -0.0005061691 0.22409162 -0.25683635 -0.2814662 0.14484826 0.1970607 -0.26812688 0.40976053 -0.24164355 -0.045582503 -0.08237118 0.3153953 0.41829446 0.021757223 0.24427943 -0.38104454 -0.27888373 -0.10700386 -0.25717854 0.051816735 0.2562086 -0.34564313 0.012302198 -0.43277434 -0.4619999 0.41581702 -0.29313335 -0.19529355 -0.2688141 -0.39769873 -0.18883695 -0.21595079 -0.24760537 0.5177284 0.009500954 -0.36777133 -0.2542708 0.23669252 -0.056452096 -0.26563412 -0.34135586 -0.24124828 -0.12062393 0.051360134 -0.16935319 -0.08198812 -0.100479856 0.066316746 0.19022731 -0.14229722 -0.10260894 -0.6309415 0.03150132 -0.16800709 0.06756154 0.24083994
31 -0.068550326 0.5700744 0.5763627 -0.69095844 -0.05657276 -0.24006286 0.22342452 0.13138428 -0.07797005 -0.4397743 0.0756754 0.30044845 -0.42521286 -0.1809855 -0.16572256 -0.049659006 -0.019697756 -0.019429391 -0.044334248 -0.24648307 -0.28666657 -0.07163135 0.501878 0.04486134 0.48373067 -0.14429548 0.403132 -0.28332037 0.30070785 -0.177818 0.72703093 -0.08862591 -0.55542415 -0.599586 -0.0028071846 -0.5430062 0.3626641 -0.03361303 -0.3660026 -0.45194915 -0.21725604 -0.41906765 -0.80824 -0.22155786 0.24236998 0.18657762 -0.18430626 0.06558702 -0.31502545 0.6788365 -0.74708205 0.41753888 0.2818825 0.3020359 -0.13405296 0.2036255 -0.38018528 -0.060486823 0.02173242 -0.06686385 -0.54174674 -0.2114319 0.16809465 -0.049974784
12 0.3271549 0.38762328 -0.077752 0.016905405 0.1426642 -0.20650701 0.28087184 0.21877599 -0.14118868 0.097074136 -0.46541074 -0.4161211 -0.04530598 0.5367079 -0.1799268 0.53140575 -0.47963634 -0.05756025 -0.29323545 0.062066965 0.13852237 -0.14044787 0.19977559 -0.09741655 -0.072799526 -0.2391207 -0.13851202 0.064872116 0.13827339 0.031171711 -0.19597204 -0.33037108 -0.6154747 0.22457261 -0.46171516 -0.027445711 -0.35039485 0.07721826 0.15493205 -0.019136582 -0.4546063 0.48402667 0.10368604 -0.66776353 -0.29594788 0.5039187 0.07187135 -0.34677076 -0.2723435 -0.27874395 -0.351743 0.09807594 -0.07203498 0.12086008 -0.014641023 0.15723304 0.05177824 -0.08490508 -0.16698588 -0.37116465 -0.19299768 -0.30135548 0.08735337 -0.025244722
28 0.07859091 -0.1016013 0.2065625 -0.43808517 0.07072013 0.121081434 -0.09686269 0.06148575 -0.119137496 -0.20139642 -0.5772441 -0.18291464 -0.23039216 0.011461884 -0.18479736 0.21063326 -0.31234056 0.20151314 0.31811938 -0.04677682 -0.15409684 -0.40626916 0.13437134 -0.4085751 -0.010989726 -0.019345589 0.3632426 -0.215294 0.19765815 0.031899165 0.4935927 -0.62658304 -0.71541256 -0.30331105 0.07093532 -0.3652946 0.07319726 0.09333757 -0.1752606 -0.35420823 -0.095203124 -0.019636557 -0.3142195 -0.24485886 0.26413578 0.06377553 -0.11062642 0.2282887 -0.19473973 -0.110440634 -0.13149428 0.42079526 0.16569898 0.21453959 0.015564459 0.2270659 -0.24643499 0.022029418 -0.26392668 0.1483443 -0.32397518 -0.41297212 0.20499206 -0.04161744
24 0.12091649 0.06855195 0.02242544 -0.25932825 -0.097820915 0.32564694 0.019402731 0.12787688 -0.094331235 -0.096165664 -0.55766284 0.004329741 -0.065538354 -0.057818867 -0.39393118 -0.024981909 -0.32485005 0.20435111 0.017989619 -0.017636059 0.092053264 -0.29684126 0.16111545 -0.524743 -0.0843519 -0.08451356 0.15339187 -0.076610416 0.22709534 -0.2577737 0.3572485 -0.38061246 -0.70249707 -0.52457154 -0.2983424 -0.18195868 -0.15050398 0.063070714 -0.28146547 -0.23605992 -0.28282 -0.2473629 -0.23466082 -0.11891543 -0.036562428 0.05132874 -0.04985872 0.07344551 0.1151965 -0.08976908 -0.37786454 0.29104543 0.02838588 0.38198113 0.15459207 0.17450778 -0.095971696 0.06892314 -0.22417572 0.12530981 -0.1146547 -0.36733127 -0.06717259 -0.07040334
40 0.40692168 0.18963514 -0.5982835 0.41620415 -0.17664792 -0.65193635 0.6709271 0.009626156 -0.3727586 -0.120407164 -0.21076038 0.15612148 -0.15093213 -0.05761917 0.561545 0.23728956 0.20431454 0.16078597 0.7946392 0.10496532 0.26700062 -0.033104 0.3036787 0.09280809 0.29023054 -0.36635017 0.08239921 0.54240096 0.6236029 0.33839706 0.24896246 0.15056235 -0.5068748 -0.28550094 0.2340463 -0.8961929 -0.0843759 -0.41350242 -0.0024817693 -0.018027999 -0.54306 0.06868903 -0.023944294 0.12421815 0.07665095 0.58514327 -0.28296307 -0.37006196 0.06438008 0.7193026 -0.72935814 0.34717932 -0.07902301 -0.6515965 -0.07330086 0.5389837 -0.08721999 0.1967737 0.14739384 -0.20123494 -0.08936838 -0.17505103 0.34665367 -0.32495168
22 0.26284203 0.2669318 0.23921762 0.0043953783 -0.23525082 0.32250935 0.07192165 0.27901754 -0.1772238 -0.22540212 -0.6615958 0.039347153 -0.2186697 0.2943782 -0.3085824 0.078175925 -0.36206836 0.16405262 -0.054622695 -0.1472541 0.063619636 -0.2346614 -0.00739704 -0.1941986 -0.12753502 0.07322538 0.14352416 -0.13118675 0.25435415 -0.25134623 0.007825955 -0.57635325 -0.503192 -0.30622151 -0.17995729 -0.17229494 -0.2837682 -0.04918481 0.08023517 -0.27253515 -0.39460105 0.04223947 0.019968761 -0.22453953 -0.18234447 0.23334266 -0.06420323 0.053828165 -0.29231992 -0.3054293 -0.05234136 0.13966037 -0.0057024364 0.03247658 0.06511019 0.16808183 -0.047041982 0.0071261846 -0.172084 -0.19366279 -0.28379565 -0.2758753 -0.17892389 -0.21760201
21 0.2854889 0.3030637 0.14507481 0.10805494 -0.09372291 0.038923357 0.13288595 0.24754177 0.04540728 0.0019770565 -0.56191814 -0.15850927 -0.2841177 0.33684185 -0.32552594 0.29616642 -0.37911314 0.04202133 -0.06924266 0.009220878 0.07901044 -0.085119754 0.055835295 -0.07817257 -0.12856665 0.14351471 0.047201637 -0.037710242 0.017955499 -0.19174051 -0.31406978 -0.5143177 -0.52156377 -0.011873118 -0.39012486 -0.17925645 -0.2553562 0.316635 0.21996349 -0.07309502 -0.36874026 0.15002395 0.00038844038 -0.57449204 -0.22999139 0.43097264 0.1345935 -0.105422944 -0.450933 -0.19076903 -0.3960921 0.1331672 0.06363945 0.052700702 0.07436729 0.22572565 0.091140896 0.008957443 -0.103666544 -0.3342617 -0.2763153 -0.30699846 -0.043334756 -0.41170174
32 -0.07158804 0.31773198 0.59054625 -0.4924518 -0.15275447 0.04648904 0.16731404 0.20342742 0.0061394665 -0.4771476 -0.0074927164 0.4578693 -0.43340552 -0.11577348 -0.26822802 -0.018269937 -0.119796075 0.13765074 0.13544407 -0.13987178 -0.06839701 -0.14491642 0.3786063 -0.07730071 0.4179346 -0.21041869 0.34737876 -0.3418465 0.10557782 0.05163413 0.6350791 -0.33125556 -0.5838773 -0.617678 -0.019166764 -0.49291256 0.31665912 0.0175138 -0.28208846 -0.46993518 -0.18948203 -0.3596714 -0.621206 -0.04583834 0.3648388 0.28185838 -0.2745696 0.05459183 -0.29181463 0.22943829 -0.79376996 0.24107054 0.19905655 0.18121275 -0.03221939 0.034941114 -0.38781917 -0.20575756 -0.121686816 0.009987758 -0.59304863 -0.16544244 0.15185569 -0.023913678
36 0.21537215 0.6641824 0.027543046 -0.06338079 0.13819711 -0.8543746 0.7753341 -0.5608335 0.14864096 -1.243775 -0.10228471 0.18708704 0.3030296 0.014705 0.053302683 0.5534319 -0.3146949 -0.11805625 0.3225845 0.79667187 -0.020715715 0.26164466 0.45658162 -0.34135175 0.38083875 0.033799555 -0.32446986 -0.05027974 0.24912655 0.21877201 0.4640993 0.23482494 -0.55355626 -0.19549416 0.32321003 -0.19322546 -0.624372 -0.50710136 0.14675626 0.085119985 0.046439514 -0.085619174 0.01031095 -0.46986446 0.12807474 -0.4164968 0.016751962 -0.12277591 0.037563067 0.3427429 -0.7737983 -0.06581013 -0.093498506 -0.19979727 -0.2639668 -0.027262205 -0.63701606 0.3008074 -0.18266065 -0.62715274 -0.8666183 -1.0176057 -0.14006515 -0.43066102
38 -0.062300306 0.5100516 0.25015837 0.0487483 0.27444103 -0.93880314 0.723957 -0.6258085 0.1832809 -1.2730387 -0.14582956 0.272195 0.4148729 -0.14943454 0.08701741 0.6610929 -0.30789077 -0.05339482 0.24994682 0.8182797 0.013244666 0.27462485 0.44653735 -0.3026153 0.38602293 0.016229976 -0.34849012 0.031497885 0.4718497 0.15350333 0.46976924 0.22225843 -0.5951773 -0.21288057 0.27152973 -0.114642724 -0.7024467 -0.48665032 0.11990567 0.025234161 0.0087458175 -0.012925434 -0.0253193 -0.45112342 0.09291547 -0.2951265 0.008669202 -0.035913687 0.07845788 0.28736353 -0.85120606 0.07324845 -0.044221092 -0.23239009 -0.20145653 -0.04447574 -0.4686281 0.26100355 -0.18977532 -0.7137073 -0.8311944 -0.868835 -0.04261943 -0.40096384
45 0.60399485 0.16203025 -0.5246012 0.009658712 -0.19212823 -0.73305535 0.36124086 0.008828845 -0.19857164 -0.29519284 0.25147498 -0.04277751 0.024814136 -0.09357766 0.013209386 0.12730862 0.6115891 0.08399633 0.67683995 -0.10344392 0.32281706 -0.33700803 0.44752112 0.02208138 0.17779338 -0.40679085 -0.058003012 -0.058768556 0.4296291 0.16770895 0.089027785 0.19988482 -0.5337891 -0.11217449 0.3785822 -0.45696357 -0.5069171 -0.7822025 0.26692477 0.15300447 -0.62060094 0.23145376 -0.10876616 0.11728765 0.057197545 0.65360516 -0.32579073 -0.16625299 -0.06579287 0.52719206 -0.8758507 0.60412276 0.2049891 -0.58545476 0.1270624 0.271739 -0.19282708 0.3329402 0.08254473 -0.013989264 -0.14457895 -0.13773924 0.5071477 -0.5465263
2 0.5780103 0.36813545 0.22365667 0.17300609 -0.31415635 -0.4879083 0.41838285 0.31862748 0.159447 -0.14870986 -0.16641356 -0.09348987 0.23389193 0.2233892 -0.034409482 0.30451098 0.099336885 0.044461846 -0.17692311 0.37406114 0.5951897 0.43435943 0.4780745 -0.39347216 0.0038699445 0.093624994 -0.36001825 0.12774773 -0.0055946885 -0.64268893 0.1335793 0.01953393 -0.47978726 0.19343837 -0.366433 -0.00053058553 0.2030163 -0.76255274 -0.19533081 -0.18388878 -0.6552506 0.21034881 0.08114736 -0.33575985 -0.41407302 -0.07501 -0.20348871 -0.058276657 -0.055648986 0.5683906 0.1641434 0.32340887 0.14272971 0.030455701 -0.15142545 0.33290866 0.54187024 -0.3257511 -0.46177453 -0.34182605 0.054353714 -0.490063 -0.026486682 -0.21585529
16 0.19951075 0.26355785 -0.07536292 -0.22774842 0.006003977 0.37807825 -0.012320873 0.10234814 0.15167366 -0.08131303 -0.5618541 -0.15493658 0.12499156 0.21073945 -0.0823698 -0.012930944 -0.10900281 0.20211157 0.14325306 0.051826905 0.27333608 -0.060869634 0.14378881 -0.47033566 -0.12774232 -0.26800084 0.20203839 0.17938988 0.18897724 -0.44336528 0.2638895 -0.47480416 -0.43312907 -0.28737086 -0.2599628 0.05283624 -0.22361784 -0.12330192 -0.33049008 -0.17831896 -0.21285234 -0.36524597 -0.4512243 -0.25072718 -0.061990578 0.15946808 -0.16429353 -0.021592267 -0.10602028 -0.28702417 -0.4357066 0.18574005 0.11716188 0.27270216 0.14114593 0.14201054 -0.055719193 -0.11863945 -0.28356755 -0.061496478 0.11709288 -0.34913838 -0.27667117 -0.22571008
11 0.5018921 0.60331815 -0.08231973 0.13822213 -0.092171595 -0.22066182 0.38117304 0.05991406 -0.09305863 0.12263294 -0.5679196 -0.39610314 0.07958793 0.35470465 -0.24925864 0.5772665 -0.1838034 -0.20880404 -0.15851672 0.13142262 0.22709668 -0.04513248 0.25444248 -0.22982293 0.029890604 -0.25334033 -0.08874494 -0.09019983 0.22378509 0.07307054 -0.06803343 -0.37664387 -0.40959322 0.44752678 -0.5428966 -0.049366657 -0.35246316 -0.14215094 -0.18576236 -0.15071498 -0.32412717 0.5398556 -0.12032773 -0.52762926 -0.25544032 0.40496808 -0.10142559 -0.30625796 -0.042435065 -0.4769892 -0.2769647 0.045757096 -0.22972974 0.043213226 -0.027131375 0.045316435 0.17821015 -0.15820692 -0.18811381 -0.40921262 -0.13741119 -0.15236151 0.084681146 0.04953135
34 -0.18804918 0.6792691 0.6250058 -0.69422036 0.027953552 -0.29923642 0.16451931 0.14313848 -0.11490245 -0.39434108 0.1795642 0.3165574 -0.3310569 -0.009745439 -0.030896328 0.026551053 0.07764206 -0.023615733 0.13208026 -0.25732565 -0.23533519 -0.096786864 0.54465765 -0.032833662 0.54778326 -0.24904324 0.3908894 -0.2778755 0.33789694 -0.17019925 0.8282911 -0.18340784 -0.49020174 -0.6087824 0.07390495 -0.4111305 0.44880456 -0.16915214 -0.38218397 -0.48915818 -0.27271503 -0.37478408 -0.8196657 -0.27141297 0.24010451 0.16409035 -0.3262134 0.1541344 -0.2747086 0.57944226 -0.6617534 0.36817843 0.27084753 0.22715376 -0.15519106 0.23308013 -0.44663972 -0.17127278 0.009535977 -0.08147375 -0.518279 -0.23224242 0.1962752 0.008572424
13 0.25725195 0.73631716 -0.17388701 0.14476351 0.0048475605 -0.12803736 0.06116542 0.1491402 -0.008486036 -0.08404785 -0.4892936 -0.27459073 -0.25786963 0.4839208 -0.13614269 0.36453748 -0.44717985 -0.05987643 -0.15864436 0.017747018 0.11127268 -0.17197813 0.14424592 -0.06290716 -0.026192056 -0.01734384 -0.08188836 -0.021504583 -0.01995053 0.04120488 -0.33526978 -0.51671565 -0.5569705 0.12923223 -0.41376123 0.024712125 -0.15774004 0.20834465 0.1266551 -0.085850015 -0.46564028 0.26909965 0.12244445 -0.5330855 -0.30268982 0.40569657 0.046789818 -0.003233277 -0.40390673 -0.43373874 -0.36401734 0.20947865 0.037117384 0.03175923 0.07837624 0.4200117 0.122872695 -0.030291202 -0.10065425 -0.41893953 -0.28812644 -0.31744277 0.1539688 -0.16129977
29 0.039796483 -0.19189872 0.32331008 -0.42304006 -0.27014646 0.10664343 0.03363494 0.07088689 -0.10299611 -0.27655843 -0.5720925 -0.06775349 -0.25655678 -0.12146165 -0.17763758 0.15062876 -0.35558432 0.2639692 0.44326574 -0.100863285 -0.13778803 -0.31771657 0.03660587 -0.3637846 -0.051784728 -0.18868788 0.30144683 -0.33863676 0.11385437 -0.07978195 0.66626936 -0.64017767 -0.62164 -0.21997027 -0.0025184378 -0.24874334 0.15899904 0.051526953 -0.064746045 -0.3725355 -0.11798262 -0.069857225 -0.27956584 -0.22076388 0.26177314 0.06842938 -0.10359782 0.18339382 -0.21763611 -0.11315224 -0.05680601 0.40094167 0.16318291 0.11870567 -0.008235751 0.2371663 -0.02638468 0.13523494 -0.33829176 0.01685601 -0.26367074 -0.449349 0.1475718 -0.13040257
1 0.6461872 0.5250131 0.14941855 0.19103834 -0.36545846 -0.43684918 0.36059058 0.12252675 -0.06524074 -0.18292713 -0.13860412 -0.17251845 0.39008942 0.04382493 0.0909056 0.22008172 0.18979684 -0.016847262 -0.27594635 0.42119238 0.5313323 0.42898995 0.42499238 -0.32677472 0.02423612 0.09844626 -0.3874491 -0.04483507 -0.007803267 -0.6024937 0.23431072 -0.024197578 -0.4984819 0.28039765 -0.312948 -0.05854453 0.20365219 -0.7776487 -0.21088393 -0.15091491 -0.598265 0.14240626 0.009555867 -0.3669223 -0.39487088 -0.069714874 -0.19801061 -0.025567122 -0.04653926 0.54441285 0.115184724 0.42423385 -0.027513685 -0.06254933 -0.0991892 0.39812854 0.63427657 -0.4480314 -0.45768315 -0.4364236 0.16505243 -0.5897775 -0.073459595 -0.37888128
41 0.54305094 0.30192795 -0.51430905 0.52418315 -0.15706211 -0.53921616 0.7748657 0.042480294 -0.34732288 -0.099600874 -0.14946382 0.14207067 -0.27688658 -0.056791298 0.73451334 0.19810875 0.13041313 0.11026482 0.8809482 0.21438931 0.3107204 -0.037339773 0.2641437 0.082141876 0.32787284 -0.42870733 0.12057921 0.47965586 0.62369615 0.38099918 0.40686816 0.10569013 -0.5974953 -0.30688682 0.3407306 -0.84401375 -0.28120065 -0.31246683 -0.09484761 0.017517172 -0.4841763 0.028369494 0.05818235 0.1599259 0.067067795 0.681273 -0.21322869 -0.29147634 0.11838068 0.8039398 -0.6156956 0.21305422 -0.03235203 -0.46689776 -0.20754145 0.60978425 -0.019098632 0.054154478 0.24715985 -0.27127525 -0.05400856 -0.1062819 0.36228666 -0.38605464
